tree
version=v3
num_class=1
num_tree_per_iteration=1
label_index=0
max_feature_idx=23
objective=quantile
feature_names=1M_Log_Return 2M_Log_Return 3M_Log_Return 6M_Log_Return 12M_Log_Return 1M/3M_Mean_Log_Ratio 1M/6M_Mean_Log_Ratio 3M/6M_Mean_Log_Ratio 3M/12M_Mean_Log_Ratio Age Log_Cnt_New_Customers_1M Log_Cnt_All_Ever_Customers Log_Cnt_New_Customers_6M_Mean Log_Cnt_Unique_Customers_1M Log_Cnt_Unique_Customers_3M Log_Revenue_Per_Unique_Customer_3M Volatility_6M Volatility_12M Gini_1M Gini_3M Gini_6M 1M_Churn_6M_Mean 3M_Churn_6M_Mean Mean_Log_3M_Revenue
feature_infos=[-99:99] [-99:99] [-99:99] [-99:99] [-99:99] [-99:1.0986122886681098] [-99:1.791759469228055] [-99:0.69314718055994529] [-99:1.3862943611198906] [2:127] [0:11.07627923937849] [0:11.991294010547591] [-1.791759469228055:10.19950974926291] [0:11.077701934697789] [0:11.966367708416739] [0:20.734139836731984] [0:114.3153532995459] [0:97.48846085563153] [-1:27.416708417899486] [-1:4.6573906712659321] [-1:2.0514938409877201] [0:1] [0:1] [0:20.527347148717912]
tree_sizes=2860 2927 2919 2941 2922 2920 2955 2925 2926 2924 2945 2918 2919 2930 2929 2941 2884 2949 2902 2937 2923 2945 2926 2943 2947 2927 2937 2897 2935 2944 2931 2942 2923 2953 2932 2928 2926 2919 2924 2930 2919 2929 2901 2929 2925 2942 2929 2939 2949 2930 2932 2925 2934 2937 2947 2950 2946 2926 2941 2932 2936 2936 2964 2928 2938 2934 2944 2942 2908 2922 2913 2923 2916 2967 2959 2951 2927 2929 2961 2941 2980 2914 2970 2932 2953 2943 2913 2955 2937 2935 2920 2931 2941 2950 2928 2938 2938 2914 2920 2933

Tree=0
num_leaves=31
num_cat=0
split_feature=0 10 2 1 9 15 7 1 12 16 15 9 6 6 5 0 17 2 2 0 23 19 5 1 19 0 16 17 6 3
split_gain=644.763 155.024 101.566 95.6579 90.0767 87.4192 58.0367 52.0889 44.5159 43.8153 43.6044 39.2979 38.547 44.2012 37.967 33.9756 32.368 32.3002 31.8197 30.7482 37.5653 28.3976 27.4963 29.1594 33.5256 38.5417 27.1489 26.4427 25.7987 25.2934
threshold=0.42857486457425137 2.3502401828962087 0.47699841305070989 0.59023871107706427 8.5000000000000018 14.268050131745955 0.066741580717911295 0.91501286692063843 -1.445185878948082 0.47515520412661483 16.606545254273644 8.5000000000000018 1.2821793903035943 1.5596234410447323 0.68263359381789912 -0.058326602973285395 0.77016683319308443 3.7033800321469976 1.4603640610933308 0.19775694962030602 15.670727622567789 0.413282954198604 0.22902904347162045 0.29960676005196724 0.33042709121745756 4.9408069521687956 0.24477333169404356 0.5683037396728905 0.21125526927848876 4.7095377245243046
decision_type=2 2 8 10 2 10 8 10 8 10 10 2 8 8 8 2 8 10 10 2 2 10 8 8 8 2 8 10 10 8
left_child=3 2 27 9 -3 8 11 10 -4 -1 29 -5 14 -14 16 -11 -10 22 -8 20 -20 -21 -15 -24 -25 -26 -12 -2 -13 -7
right_child=1 4 5 6 -6 7 18 -9 12 15 26 28 13 17 -16 -17 -18 -19 19 21 -22 -23 23 24 25 -27 -28 -29 -30 -31
leaf_value=-0.34896860874444247 -0.35503577269504966 -0.34667804585397244 -0.3485608410015702 -0.39776650875806807 -0.37226305931806564 -0.38606497329473494 -0.35284455943107607 -0.41007363051176071 -0.41942032148468206 -0.35009510800242422 -0.39561470097303392 -0.36959443587064744 -0.45372542899847029 -0.38547282588245252 -0.40626102334260938 -0.36251350510120389 -0.35582252597808839 -0.34479001383983998 -0.34581033189035953 -0.41874836808443072 -0.38968510442972182 -0.35332154497504237 -0.33287535834312437 -0.37961497074365613 -0.37701337295770643 -0.3786962745785713 -0.35655911025404929 -0.37613120877742767 -0.37695443439483645 -0.39784924548864364
leaf_weight=19882 839 1990 398 169 1269 378 2026 1164 140 6525 51 494 356 176 228 3614 727 234 498 176 157 86 136 389 623 95 301 1056 122 201
leaf_count=19882 839 1990 398 169 1269 378 2026 1164 140 6525 51 494 356 176 228 3614 727 234 498 176 157 86 136 389 623 95 301 1056 122 201
internal_value=-0.358028 -0.365932 -0.368862 -0.355527 -0.359196 -0.371369 -0.361117 -0.377348 -0.367793 -0.354833 -0.370824 -0.370056 -0.369286 -0.37233 -0.363701 -0.356813 -0.360168 -0.369783 -0.358733 -0.364452 -0.360167 -0.375164 -0.371884 -0.369946 -0.371932 -0.367193 -0.360554 -0.361459 -0.36572 -0.377068
internal_weight=0 10751 7492 33749 3259 5597 3728 2095 3502 30021 931 785 3104 2009 1095 10139 867 1653 2943 917 655 262 1419 1243 1107 718 352 1895 616 579
internal_count=44500 10751 7492 33749 3259 5597 3728 2095 3502 30021 931 785 3104 2009 1095 10139 867 1653 2943 917 655 262 1419 1243 1107 718 352 1895 616 579
is_linear=0
shrinkage=1


Tree=1
num_leaves=31
num_cat=0
split_feature=0 10 2 15 1 9 7 1 6 6 15 20 14 16 3 22 16 17 2 5 5 2 3 18 0 18 1 15 21 2
split_gain=623.256 150.978 94.7728 93.7749 93.6169 85.5547 51.8781 50.1333 48.531 54.4146 43.6044 40.8605 38.9494 36.7957 33.928 29.761 27.1489 26.4427 25.7154 28.4742 33.7387 44.9335 25.2934 23.2853 26.6985 37.9121 22.9401 22.4112 22.3652 21.9686
threshold=0.42857486457425137 2.3502401828962087 0.47699841305070989 14.268050131745955 0.54653677855859462 8.5000000000000018 -0.014871371093893066 0.91501286692063843 1.2821793903035943 1.7003218359950198 16.606545254273644 0.49701446916756015 3.8815106545092593 0.20740359672544131 -0.19895356041398762 0.99239233810959449 0.24477333169404356 0.5683037396728905 3.4696830069238138 1.0182544449421116 0.22902904347162045 2.1229806720873881 4.7095377245243046 0.29104389835613304 6.356335556592394 0.37974772848403809 0.15348990075107283 14.517665140394529 0.72976314362487338 0.91946363783267204
decision_type=2 2 8 10 10 2 8 10 8 10 10 8 2 10 8 8 8 10 10 10 8 10 8 2 2 2 8 10 10 10
left_child=4 2 17 8 13 26 12 10 -4 11 22 -10 14 -1 -6 29 -12 -2 19 20 -13 23 -5 -22 25 -25 -3 28 -16 -8
right_child=1 5 3 7 6 -7 15 -9 9 -11 16 18 -14 -15 27 -17 -18 -19 -20 -21 21 -23 -24 24 -26 -27 -28 -29 -30 -31
leaf_value=0.010590391881264746 0.0028817393230691117 -0.046577430550053714 -0.013479269450187683 -0.026999380854427813 -0.001265189452707767 -0.013708137694895267 -0.0010523772325515741 -0.050119717754423615 -0.092156399697124941 0.012757230512074079 -0.036195768608629698 -0.026429142896399836 0.0089302342603579162 0.0046426338843107212 -0.012691597532272338 0.0077186492751017211 0.0014147652537524697 -0.0174331656242609 -0.0090682452998842328 -0.051864745467960834 -0.0054279101883769046 -0.087725331276714794 -0.038347634977161885 -0.084571496764361861 -0.01990332399076223 -0.01449429754370451 0.010930230271026492 -0.025675027441024779 -0.038267959505617621 -0.026315844103515146
leaf_weight=12525 839 37 1323 378 181 1269 949 1164 277 241 51 176 154 17099 153 1661 301 1056 210 160 523 159 201 84 92 257 1953 201 67 759
leaf_count=12525 839 37 1323 378 181 1269 949 1164 277 241 51 176 154 17099 153 1661 301 1056 210 160 523 159 201 84 92 257 1953 201 67 759
internal_value=0 -0.00769044 -0.0105823 -0.0130037 0.0025392 -0.00104244 -0.00268306 -0.0191958 -0.00929947 -0.0126934 -0.0127958 -0.0147553 -0.0114424 0.00326637 -0.0156901 -0.000717475 -0.00252609 -0.00343046 -0.0125613 -0.0143127 -0.012488 -0.0101116 -0.0190393 -0.00708248 -0.0134288 -0.00865659 0.00374481 -0.0214495 -0.0132897 -0.00414686
internal_weight=0 10751 7492 5597 33749 3259 4125 2095 3502 2179 931 1938 756 29624 602 3369 352 1895 1661 1451 1291 1115 579 956 433 341 1990 421 220 1708
internal_count=44500 10751 7492 5597 33749 3259 4125 2095 3502 2179 931 1938 756 29624 602 3369 352 1895 1661 1451 1291 1115 579 956 433 341 1990 421 220 1708
is_linear=0
shrinkage=0.037


Tree=2
num_leaves=31
num_cat=0
split_feature=0 10 2 15 9 16 0 5 1 12 7 6 16 3 3 0 1 2 9 8 2 0 6 0 5 8 6 0 1 15
split_gain=568.509 136.536 88.3298 87.5342 81.1492 80.2631 72.8949 55.6479 51.2914 51.8291 49.2373 42.46 34.4352 60.9982 32.6571 32.2146 31.9949 31.6 28.0646 27.8951 26.9309 36.0458 26.0057 25.2453 25.7509 42.1855 26.7892 26.4253 22.9401 22.7115
threshold=0.42857486457425137 2.3502401828962087 0.55476884094782541 13.879076234316784 8.5000000000000018 0.39458636200509617 0.83895956011869677 0.25367252672421331 0.28795319531801827 -1.445185878948082 0.081332845055479261 0.87830970788582463 40.273280047982695 0.16341839168468164 54.457841412814979 1.1633437115882972 53.694505292688682 1.1220548649941655 4.5000000000000009 0.1893892141627509 1.4603640610933308 0.19775694962030602 1.7003218359950198 -0.058326602973285395 -0.28647275794405841 -1.2022537309414305 -0.38908489769249893 -0.034037433235365427 0.15348990075107283 16.50214909219973
decision_type=2 2 8 10 2 10 2 10 8 8 8 8 8 10 10 2 10 10 2 8 10 2 10 2 10 10 10 2 8 10
left_child=5 2 -2 8 28 -1 12 23 -4 -10 19 17 13 -5 15 -11 -17 29 -18 -9 -12 -22 -16 -7 25 26 27 -25 -3 -8
right_child=1 4 3 6 -6 7 11 10 9 14 20 -13 -14 -15 22 16 18 -19 -20 -21 21 -23 -24 24 -26 -27 -28 -29 -30 -31
leaf_value=0.008654569852847448 -0.0082177635304955237 -0.044854065619701726 0.0089004540544900899 -0.034856525170110404 -0.013200936600184142 0.0058749369634177083 -0.024905720594681442 -0.0076893212924810592 0.021008656543337164 -0.012835135009385169 0.0056190649647312168 -0.048265288197509949 0.0026228288811597825 -0.011655425787922322 -0.088746612908331329 -0.052189702536150455 -0.043708881453005249 -0.0027780829081501365 4.272323659282706e-05 -0.036852045003909768 0.0013453843880080584 -0.057499803805074752 0.012276387571689328 0.019544000777066826 4.9302752115904621e-05 0.0061282033050667024 0.0044324824089418628 -0.050782019523321509 0.010525811750998513 0.00069150692868977671
leaf_weight=19142 2064 37 432 243 1269 8636 178 186 353 770 610 1194 217 383 240 932 37 181 181 221 299 240 43 38 3854 235 70 218 1953 44
leaf_count=19142 2064 37 432 243 1269 8636 178 186 353 770 610 1194 217 383 240 932 37 181 181 221 299 240 43 38 3854 235 70 218 1953 44
internal_value=0 -0.00723959 -0.00998966 -0.012467 -0.000917553 0.00253043 -0.0176666 0.000464844 -0.00822108 -0.010214 -0.00614913 -0.022313 -0.00886433 -0.0132672 -0.0123231 -0.0105936 -0.0145153 -0.0119284 -0.00175462 -0.0172079 -0.00223188 -0.008258 -0.0240569 0.00125339 -0.00102255 -0.00842894 -0.0170434 -0.0225897 0.00374481 -0.0212837
internal_weight=0 10751 7492 5428 3259 33749 2440 14607 2988 2556 1556 1597 843 626 2203 1920 1150 403 218 407 1149 539 283 13051 4415 561 326 256 1990 222
internal_count=44500 10751 7492 5428 3259 33749 2440 14607 2988 2556 1556 1597 843 626 2203 1920 1150 403 218 407 1149 539 283 13051 4415 561 326 256 1990 222
is_linear=0
shrinkage=0.037


Tree=3
num_leaves=31
num_cat=0
split_feature=0 10 2 15 3 16 0 1 12 5 6 21 16 3 2 0 1 21 22 9 6 3 0 5 4 7 15 3 21 0
split_gain=559.225 137.189 90.3551 87.8905 80.1158 78.9435 73.8496 50.8614 51.3741 50.1762 42.46 38.6594 34.3849 33.0321 31.6 31.3723 31.3528 28.2235 29.2101 28.0646 26.0057 23.7589 22.8082 39.6002 38.8839 23.4591 22.7115 21.9381 20.996 20.8834
threshold=0.42857486457425137 2.3502401828962087 0.55476884094782541 13.879076234316784 0.12357311398100272 0.39458636200509617 0.83895956011869677 0.28795319531801827 -1.445185878948082 0.29387664612630104 0.87830970788582463 0.87590036904553037 0.25287156889185414 54.457841412814979 1.1220548649941655 1.1633437115882972 53.694505292688682 0.3869042873498329 0.71096019721019721 4.5000000000000009 1.7003218359950198 0.012766447195561074 -0.043404547379062935 -0.28647275794405841 -3.7221415987044257 0.12782836864694089 16.50214909219973 0.019998069682674369 0.48427683427683438 0.44666494386307748
decision_type=2 2 8 10 10 10 2 8 8 10 8 10 8 10 10 2 10 10 10 2 10 10 2 10 10 10 10 10 10 2
left_child=5 2 -2 7 -3 28 12 -4 -9 21 14 -11 -5 15 26 29 -17 -14 -19 -18 -15 22 -7 24 25 -24 -8 -23 -1 -10
right_child=1 4 3 6 -6 9 10 8 13 11 -12 -13 17 20 -16 16 19 18 -20 -21 -22 27 23 -25 -26 -27 -28 -29 -30 -31
leaf_value=0.0093105679934860699 -0.0079137062798671897 0.010136356716211567 0.008571137254473957 -0.033566833738816318 -0.012653453114514469 0.010277605517151485 -0.02398420893267823 0.020231336251233689 -0.027618674222327583 -0.017603458993356632 -0.046479472534202072 -0.035488519338765102 -0.0055952030622533032 -0.085462988230723069 -0.0026752938405485822 -0.050258683542312887 -0.042091652839244063 -0.027877050022822914 0.010303686644342931 4.1142476838892604e-05 0.011822161231536824 -0.0047356615331448169 -0.048903084800958611 0.0016439707286904563 0.0054277086330428914 0.025014976536855121 0.00066592117232825408 -5.0030528729129774e-05 0.0030711573780997699 -0.010698536987201999
leaf_weight=16253 2064 1940 432 115 1319 4806 178 353 39 1017 1194 118 526 240 181 932 37 144 58 181 43 49 158 1416 137 43 44 6863 2889 731
leaf_count=16253 2064 1940 432 115 1319 4806 178 353 39 1017 1194 118 526 240 181 932 37 144 58 181 43 49 158 1416 137 43 44 6863 2889 731
internal_value=0 -0.00716388 -0.00992052 -0.0124261 -0.000826727 0.00252604 -0.0176363 -0.00817155 -0.0101561 0.000477509 -0.022313 -0.00699365 -0.00877655 -0.0122559 -0.0119284 -0.0105165 -0.0143866 -0.00580656 -0.0175625 -0.00175462 -0.0240569 0.00110695 0.0027019 -0.000909475 -0.0122886 -0.0226493 -0.0212837 -0.000406786 0.00408925 -0.00473648
internal_weight=0 10751 7492 5428 3259 33749 2440 2988 2556 14607 1597 1135 843 2203 403 1920 1150 728 202 218 283 13472 6560 1754 338 201 222 6912 19142 770
internal_count=44500 10751 7492 5428 3259 33749 2440 2988 2556 14607 1597 1135 843 2203 403 1920 1150 728 202 218 283 13472 6560 1754 338 201 222 6912 19142 770
is_linear=0
shrinkage=0.037


Tree=4
num_leaves=31
num_cat=0
split_feature=0 13 2 15 0 3 16 1 5 15 23 12 3 2 7 1 10 16 16 11 0 18 1 0 2 16 16 6 5 2
split_gain=469.562 118.557 97.4501 114.121 83.2252 78.7157 61.7725 40.3007 37.5392 34.2873 33.2304 33.1265 37.6627 32.2692 29.0792 29.4058 27.8981 23.8702 25.266 23.685 23.4562 25.3345 31.6943 32.6882 32.0399 23.6856 23.5406 23.3409 21.5749 21.1584
threshold=0.33995470167369235 2.8617925509761908 0.60069956051475992 13.790806033126076 1.3104852269782648 -0.17253913031286319 0.31953656671149971 0.41397516432926657 0.24817044638962854 16.101802549727829 10.02058786165807 -1.445185878948082 54.457841412814979 0.70371214528799753 0.24161090702797972 0.93229336633748672 2.3502401828962087 2.4526434378676139 0.73634084892956564 3.0201273556387074 1.4656221266494369 0.48604629872310717 53.694505292688682 1.5995925957477264 1.8527644928371243 0.42817302395137435 1.9557858029154545 1.7003218359950198 0.3952542868696205 0.25789348964223913
decision_type=2 2 8 10 2 10 10 8 10 10 2 8 10 8 10 10 2 10 10 2 2 2 8 2 8 8 10 10 10 10
left_child=6 2 -2 7 13 -3 -1 -4 29 -7 -10 -9 20 -5 15 19 -17 18 -12 -15 25 22 26 -24 -25 -13 -22 -14 -11 -8
right_child=1 5 3 4 -6 9 8 11 10 28 17 12 27 14 -16 16 -18 -19 -20 -21 21 -23 23 24 -26 -27 -28 -29 -30 -31
leaf_value=0.0088743458163007948 -0.0074584087616498861 0.0097613115177117397 0.00059964919685474155 -0.03232486089048011 -0.044759732050436596 -0.0039547083739391222 0.0061886710815580248 0.01234691929024437 -0.0341754441232308 -0.0036384096476020193 -0.0042013227252195072 -0.054720983081532788 -0.082300857666186319 0.002000692206820128 -0.0069622984234397958 -0.026845599171978467 0.01395235167598353 0.010844820460485894 -0.027615997113297899 -0.043569510390272591 -0.047828600136297673 -0.079723018792117975 -0.077651761099177319 -0.040534261684192031 0.012282109951730366 -0.0082136319327754063 -0.048399112251247309 0.01138474126596996 -0.041836494011419874 -0.001114828478543964
leaf_weight=16590 2358 1959 660 177 1144 1686 9224 319 76 225 457 90 242 146 517 295 46 380 382 101 198 193 48 37 313 1022 134 43 252 5186
leaf_count=16590 2358 1959 660 177 1144 1686 9224 319 76 225 457 90 242 146 517 295 46 380 382 101 198 193 48 37 313 1022 134 43 252 5186
internal_value=0 -0.00576723 -0.00837136 -0.0109787 -0.0170704 -0.000660668 0.00275183 -0.00649893 0.00108867 -0.00552662 -0.00494557 -0.00854406 -0.0100812 -0.0105967 -0.00824732 -0.0138755 -0.0209176 -0.00346565 -0.00695014 -0.00415344 -0.008317 -0.0126771 -0.00952522 -0.00248383 0.001443 -0.00469794 -0.0179664 -0.0226784 -0.0142847 0.00163095
internal_weight=0 12205 8083 5725 2426 4122 32295 3299 15705 2163 1295 2639 2320 1282 1105 588 341 1219 839 247 2035 923 730 398 350 1112 332 285 477 14410
internal_count=44500 12205 8083 5725 2426 4122 32295 3299 15705 2163 1295 2639 2320 1282 1105 588 341 1219 839 247 2035 923 730 398 350 1112 332 285 477 14410
is_linear=0
shrinkage=0.037


Tree=5
num_leaves=31
num_cat=0
split_feature=0 10 16 5 20 5 0 15 23 19 20 23 16 0 15 16 19 0 1 20 2 11 19 16 0 2 9 0 7 19
split_gain=437.371 136.746 91.3832 87.0515 79.3218 64.4545 45.2842 47.6782 36.8092 33.9535 41.419 32.4186 31.8201 33.3842 31.7164 30.1473 28.0452 38.374 24.9935 20.5658 20.2298 19.3775 19.2034 46.2752 18.4922 17.9521 19.0672 25.8699 17.8994 17.8425
threshold=0.65939410087951467 3.0201273556387074 0.23849690482663469 0.5441387611783316 0.10886213502544374 0.23830966684770857 1.2106370842920813 13.879076234316784 13.595467413677524 0.57196354888098366 0.18698240721113715 10.02058786165807 2.1921858610882956 6.356335556592394 16.426410624276759 2.3551414783100575 0.35429012733323689 1.5995925957477264 -0.40016359841847976 0.97285382279393218 0.62509015702378401 2.6735537653587347 0.63887118105010243 1.1998389954088724 3.2063301060129326 2.3580349842004251 7.5000000000000009 1.2106370842920813 0.28080474179316545 0.64688948200511698
decision_type=2 2 10 10 8 10 2 8 2 10 8 2 10 2 10 10 10 2 8 10 10 2 10 10 2 8 2 2 10 10
left_child=2 3 19 6 8 20 21 24 -5 10 -6 -7 13 16 18 -13 17 -9 -3 -1 -4 -2 -22 29 -8 26 27 -11 -18 -24
right_child=1 14 5 4 9 11 7 12 -10 25 -12 15 -14 -15 -16 -17 28 -19 -20 -21 22 -23 23 -25 -26 -27 -28 -29 -30 -31
leaf_value=0.0090345133977664666 0.00057746217657111639 -0.0018915555584346827 0.004449453965507515 0.010972331250567083 -0.079255725932537435 -0.032910952690671257 -0.025871757674319602 -0.074778645938507762 -0.057458420229073694 -0.034677646113831763 -0.039034494001876925 -0.012731269583059479 -0.018604986710789098 -0.020246616336824258 -0.062487091272886625 0.0032032570010427164 -0.054637653274776828 0.013773604928472946 0.0094001429915564049 -0.014913720090477471 0.0011478404537816121 -0.012227801127674472 -0.0094587715411485924 -0.047052422009617019 0.0082318181557747942 -0.048704754834290903 -0.045447774855301076 0.013436114663972138 0.0052288221243211317 0.0058148545805922838
leaf_weight=14894 1005 37 14786 383 165 92 206 84 158 37 1337 2860 163 223 73 732 189 162 1573 30 2397 637 22 399 301 426 484 86 38 521
leaf_count=14894 1005 37 14786 383 165 92 206 84 158 37 1337 2860 163 223 73 732 189 162 1573 30 2397 637 22 399 301 426 484 86 38 521
internal_value=0 -0.00747454 0.00218935 -0.0100567 -0.0144333 0.000662724 -0.0055811 -0.0105584 -0.00157171 -0.0171781 -0.013627 -0.00379887 -0.015869 -0.0193153 0.00185983 -0.00324339 -0.0137512 -0.00509668 0.00294138 0.00442026 0.00156957 -0.00144039 -0.00103165 -0.00550766 -0.00156079 -0.0223416 -0.0182554 -0.00524708 -0.0231302 0.00152204
internal_weight=0 7767 36733 6084 3076 21809 3008 1366 541 2535 1502 3684 859 696 1683 3592 473 246 1610 14924 18125 1642 3339 942 507 1033 607 123 227 543
internal_count=44500 7767 36733 6084 3076 21809 3008 1366 541 2535 1502 3684 859 696 1683 3592 473 246 1610 14924 18125 1642 3339 942 507 1033 607 123 227 543
is_linear=0
shrinkage=0.037


Tree=6
num_leaves=31
num_cat=0
split_feature=0 10 5 5 16 3 18 1 11 18 5 23 23 23 23 2 22 16 16 3 5 15 0 5 8 6 0 6 21 21
split_gain=397.185 98.2518 90.0091 90.3105 76.5665 69.7664 58.8078 41.5933 39.4935 44.3742 39.1609 38.3621 33.243 31.4908 54.0488 26.8111 25.9361 25.3524 25.0717 25.0074 24.831 24.7394 23.8643 28.1824 42.1855 26.7892 26.4253 21.1263 20.9285 20.7176
threshold=0.42857486457425137 1.8688348091416842 0.68263359381789912 1.0874789602991359 0.39458636200509617 0.12357311398100272 0.77336337449350556 0.61401253885893536 1.0000000180025095e-35 0.49112758527880557 1.0182544449421116 10.02058786165807 12.195002752367239 12.246329405229504 12.426616150528504 1.1220548649941655 0.13676640215847008 1.9894692592944712 1.9089029496105712 -0.034339554837917154 0.39183295165967519 16.062499860418118 -0.058326602973285395 -0.28647275794405841 -1.2022537309414305 -0.38908489769249893 -0.034037433235365427 0.42174700571080187 1.0000000180025095e-35 0.48427683427683438
decision_type=2 2 8 10 10 10 2 10 2 2 10 2 2 2 2 8 8 10 10 10 10 10 2 10 10 10 2 8 8 10
left_child=4 2 6 8 29 -3 13 22 9 10 28 -9 -5 -2 19 -10 -8 18 20 -15 27 -7 -6 24 25 26 -24 -13 -4 -1
right_child=1 5 3 12 7 21 16 11 15 -11 -12 17 -14 14 -16 -17 -18 -19 -20 -21 -22 -23 23 -25 -26 -27 -28 -29 -30 -31
leaf_value=0.0083034491868065972 0.00055609607603798706 0.0090523377008688184 -0.052755018536290214 0.011890433907301021 0.0068586898035230036 -0.0056005151909076087 0.012004348571360996 -0.031693247441116422 -0.038796267990450432 -0.039550375044411154 -0.017034484708829168 -0.011666514950245522 -0.037590217723807468 -0.019497491532361765 -0.011103372078697639 -0.072011836038782973 -0.030341601898475158 0.0052091129626567947 -0.02287893670853923 0.00097155721706425845 -0.029928772143127107 -0.032987823996458138 0.018046990717439322 0.0011053703569916915 0.0053542686532943506 0.0038767210626325693 -0.045311482395261185 0.0066735693107871077 0.005695731547078667 0.0024542805252169091
leaf_weight=16253 673 2155 74 397 7403 1238 48 87 202 114 118 714 71 165 3289 1204 219 1082 62 47 290 312 38 3828 235 70 218 580 425 2889
leaf_count=16253 673 2155 74 397 7403 1238 48 87 202 114 118 714 71 165 3289 1204 219 1082 62 47 290 312 38 3828 235 70 218 580 425 2889
internal_value=0 -0.00563584 -0.00820074 -0.013661 0.00253043 -0.000758026 -0.00499788 0.000512972 -0.0168849 -0.00990907 -0.00599058 -0.00352801 0.00106035 -0.00392103 -0.00533008 -0.0205117 -0.0218324 -0.00275666 -0.00564859 -0.0234378 -0.00474516 -0.00674474 0.00147764 -0.0006841 -0.00842894 -0.0170434 -0.0225897 -0.00255209 -0.00145768 0.00406992
internal_weight=0 10751 7046 2605 33749 3705 4441 14607 2137 731 617 2815 468 4174 3501 1406 267 2728 1646 212 1584 1550 11792 4389 561 326 256 1294 499 19142
internal_count=44500 10751 7046 2605 33749 3705 4441 14607 2137 731 617 2815 468 4174 3501 1406 267 2728 1646 212 1584 1550 11792 4389 561 326 256 1294 499 19142
is_linear=0
shrinkage=0.037


Tree=7
num_leaves=31
num_cat=0
split_feature=0 10 5 19 16 7 0 15 5 23 5 6 5 23 16 0 4 19 0 1 8 6 1 12 0 0 1 19 0 19
split_gain=372.933 98.7307 94.6963 93.5241 67.6804 45.6505 42.9937 62.1642 38.8038 42.4745 36.5315 37.5545 38.2632 33.2927 32.3695 32.6239 27.4491 26.5175 42.4487 23.6379 23.4622 21.8613 25.1654 42.0916 21.2857 21.2127 46.464 21.1428 21.0843 19.7119
threshold=0.42857486457425137 2.8029010331479989 0.55295953360516292 0.57196354888098366 0.39458636200509617 -0.10233850963313045 1.3104852269782648 13.879076234316784 0.29387664612630104 12.855417718007944 1.0874789602991359 1.3771185638459815 1.0182544449421116 12.195002752367239 2.1921858610882956 6.356335556592394 1.7398599351550064 0.35429012733323689 1.5995925957477264 53.694505292688682 -0.51010605971096756 -1.0015700377379788 -1.2442739214019702 1.4467267122167866 0.74059825656016043 -0.043404547379062935 -0.70162397154513889 0.62721863465696936 0.41149298509385063 0.77554860603560205
decision_type=2 2 10 10 10 10 2 8 10 2 10 10 10 2 10 2 8 10 2 10 10 10 10 8 2 2 10 10 2 10
left_child=4 2 6 10 -1 -3 -2 -8 21 20 11 12 24 -12 15 17 -13 18 -9 27 28 25 23 -23 -4 -6 -27 -5 -10 -29
right_child=1 5 3 19 8 -7 7 14 9 -11 13 16 -14 -15 -16 -17 -18 -19 -20 -21 -22 22 -24 -25 -26 26 -28 29 -30 -31
leaf_value=0.0073156603522093128 -0.0042636100565442529 0.011140179267636672 0.0032827160254007485 -0.038637108102266712 0.011536715321117361 -0.0058879304351825276 0.00043273757768727192 -0.069347398105347999 -0.051117885163647174 -0.013200383799310824 0.011450487852730883 0.033695783970838333 -0.043852107615248756 -0.036199379668026603 -0.017505777435578088 -0.018776084345664378 -0.073658826139598579 -0.052205235336698269 0.013053239478877536 0.010472359538042746 0.010725236129335139 0.009682145331817953 0.00082071587957427091 -0.053192414212829796 -0.028086322094174967 -0.043634957546636523 0.010979665073091055 -0.041863280882804332 0.0096259790814280481 -0.049443767241360306
leaf_weight=19142 3636 1517 183 362 2938 1139 483 78 238 775 400 41 146 71 163 223 265 219 162 41 89 217 9650 167 1006 125 375 427 33 189
leaf_count=19142 3636 1517 183 362 2938 1139 483 78 238 775 400 41 146 71 163 223 265 219 162 41 89 217 9650 167 1006 125 375 427 33 189
internal_value=0 -0.00536395 -0.00739495 -0.0124338 0.00254906 0.000826147 -0.00421672 -0.00991444 0.000652288 -0.00591788 -0.007992 -0.010599 -0.00791925 0.00109107 -0.0159667 -0.019507 -0.0222902 -0.0138665 -0.00537117 -0.0216401 -0.0164198 0.00120582 0.000333368 -0.00895554 -0.00572423 0.00375211 -0.003293 -0.0227939 -0.0218329 -0.0186235
internal_weight=0 10751 8095 3131 33749 2656 4964 1328 14607 1135 2112 1641 1335 471 845 682 306 459 240 1019 360 13472 10034 384 1189 3438 500 978 271 616
internal_count=44500 10751 8095 3131 33749 2656 4964 1328 14607 1135 2112 1641 1335 471 845 682 306 459 240 1019 360 13472 10034 384 1189 3438 500 978 271 616
is_linear=0
shrinkage=0.037


Tree=8
num_leaves=31
num_cat=0
split_feature=0 10 1 19 16 17 5 6 0 1 21 5 23 23 18 1 5 4 8 7 14 4 4 0 8 6 1 12 11 12
split_gain=359.293 97.7757 86.5592 75.7349 67.2828 64.3228 41.7892 38.1681 46.2027 41.9763 41.357 37.3507 38.3779 33.2927 31.3508 29.3781 64.4136 27.5335 25.6152 25.2771 23.8001 23.7963 23.456 23.2693 22.6543 22.3074 26.1217 42.0916 21.568 23.8874
threshold=0.42857486457425137 2.1383330595080281 0.95886114760882024 0.59355094607164227 0.30618744787212199 0.25311957090257781 1.0874789602991359 1.3771185638459815 1.5353593277969042 1.2859479031792607 0.25046358461989843 0.29387664612630104 12.699830341462912 12.195002752367239 0.7709187914353598 -0.13216262390246072 0.17770851932508988 1.7398599351550064 -0.51010605971096756 0.071361229641573071 3.1132683346437333 4.8957715317135202 2.8329164587628251 1.3104852269782648 0.57328099729105608 -1.0015700377379788 -1.2442739214019702 1.4467267122167866 5.625819309938989 1.9338613732657832
decision_type=2 2 8 10 10 10 10 10 2 8 8 10 2 2 2 10 10 8 10 8 2 8 8 2 8 10 10 8 2 10
left_child=4 2 14 6 -1 -3 7 8 9 10 -4 25 18 -8 15 16 19 -9 -13 -2 -16 -18 -5 -7 -11 -6 27 -27 29 -25
right_child=1 5 3 22 11 23 13 17 -10 24 -12 12 -14 -15 20 -17 21 -19 -20 -21 -22 -23 -24 28 -26 26 -28 -29 -30 -31
leaf_value=0.0077255421338630085 -0.050273641629240431 0.0083052145730341149 -0.0097548096713145627 -0.02920456513956916 0.010421984922472056 -0.0051754427027422738 0.01102681980217984 0.032449039963917313 -0.049763888932963012 -0.024452204639863521 -0.024812676689038114 -0.049226523412592219 -0.012711969598736321 -0.034860002620309617 -0.026691280101199234 -0.0013922140299297493 0.0073777741800908981 -0.07093344957243343 0.01032840239254974 0.0013928806871683762 -0.014222618712275852 -0.018081369224874796 -0.040314339490140572 -0.054404598207068021 0.0026816057939985311 0.0093239059545406899 0.0010569278137780383 -0.051224294886955096 -0.047614347853429974 0.00082888994580231426
leaf_weight=16630 291 1943 184 207 3663 1239 400 41 704 165 158 263 825 71 120 2430 38 295 84 452 99 186 577 42 849 217 11900 167 146 114
leaf_count=16630 291 1943 184 207 3663 1239 400 41 704 165 158 263 825 71 120 2430 38 295 84 452 99 186 577 42 849 217 11900 167 146 114
internal_value=0 -0.00530889 -0.00775206 -0.0117708 0.00245807 -0.000212867 -0.00898411 -0.0109647 -0.00907865 -0.00508603 -0.0162954 0.000829784 -0.00554533 0.00109107 -0.00369443 -0.00281968 -0.00827419 -0.0225277 -0.0158692 -0.00303086 -0.0172631 -0.0256661 -0.0219614 -0.00585808 -0.00130536 0.00129831 0.000542638 -0.00895554 -0.0150673 -0.00550162
internal_weight=0 10751 7267 3651 33749 3484 2867 2396 2060 1356 342 17119 1172 471 3616 3397 967 336 347 743 219 224 784 1541 1014 15947 12284 384 302 156
internal_count=44500 10751 7267 3651 33749 3484 2867 2396 2060 1356 342 17119 1172 471 3616 3397 967 336 347 743 219 224 784 1541 1014 15947 12284 384 302 156
is_linear=0
shrinkage=0.037


Tree=9
num_leaves=31
num_cat=0
split_feature=5 10 0 20 2 16 4 13 0 15 6 21 11 17 22 1 15 0 23 6 23 1 12 0 2 15 9 10 15 12
split_gain=342.973 94.4833 84.8398 55.9217 70.6429 55.8523 41.1692 36.5087 54.0041 55.1888 33.4821 36.6395 32.7131 31.4583 29.7424 29.6257 33.8466 28.095 27.9584 24.3843 50.6066 29.8624 45.4478 23.8236 36.5568 23.3663 47.4271 25.114 27.3107 22.2012
threshold=0.40512377764780344 2.8029010331479989 0.21967952323897252 0.16546351236271409 1.6567513955267457 0.30618744787212199 0.15643780575206195 2.8617925509761908 1.3104852269782648 13.879076234316784 1.2821793903035943 0.993667033003932 1.8688348091416842 2.6923306744588138 0.98376383063964257 1.4548856012661568 13.236988474708122 1.4144730091219915 14.690312020148147 -1.0015700377379788 9.254116311496297 -1.2442739214019702 1.4467267122167866 4.429688651542679 3.4696830069238138 17.74688196996641 7.5000000000000009 2.4414009612931857 14.679041104841071 -0.54930614433405478
decision_type=10 2 2 8 8 10 10 2 2 8 8 10 2 8 8 10 10 2 2 10 2 10 8 2 10 10 2 2 8 8
left_child=2 3 5 18 6 -1 -5 8 25 -10 11 13 -11 -6 -3 16 -12 -14 -2 -7 -21 22 -22 -17 -25 27 -27 -4 -29 -20
right_child=1 14 7 4 10 19 -8 -9 9 12 15 -13 17 -15 -16 23 -18 -19 29 20 21 -23 -24 24 -26 26 -28 28 -30 -31
leaf_value=0.0080074573785266015 0.0056835901050899381 -0.024908275600160526 -0.00013841532685353325 -0.0017173664455568869 -0.047405142046326315 0.010724243412104551 -0.032643725238253658 0.0018852612681293783 0.0079421659579306959 -0.040066324054415167 0.00046823820642024369 -0.046088931626929515 -0.038394475692277039 0.0030620361180829759 0.0066294660673659979 -0.068308911938253392 -0.024468177244724987 0.0022123177363907189 0.0082749555383600359 -0.050155008149244687 0.006203450251494636 0.0015574432424399981 -0.049328995976137754 -0.033570182523358159 0.0029298058965401982 -0.030037693804847797 0.0054557125441589034 0.010366238068479271 -0.04198948572615082 -0.053521512038363035
leaf_weight=14995 566 478 3927 1035 302 3506 676 3664 370 536 157 112 51 306 908 951 119 190 54 83 205 10379 156 116 148 110 148 58 75 119
leaf_count=14995 566 478 3927 1035 302 3506 676 3664 370 536 157 112 51 306 908 951 119 190 54 83 205 10379 156 116 148 110 148 58 75 119
internal_value=0 -0.00759046 0.00188885 -0.0101125 -0.0118717 0.00285855 -0.00622688 -0.00122599 -0.00314189 -0.0102783 -0.01624 -0.00968783 -0.0158789 -0.00610549 0.000890936 -0.0194041 -0.0084612 -0.00455683 -0.000775999 0.00120668 0.000337957 0.000560374 -0.00990093 -0.0218898 -0.0120564 -0.00124623 -0.0120434 -0.000560104 -0.0163726 -0.0137933
internal_weight=0 6047 38453 4661 3922 29324 1711 9129 5465 1147 2211 720 777 608 1386 1491 276 241 739 14329 10823 10740 361 1215 264 4318 258 4060 133 173
internal_count=44500 6047 38453 4661 3922 29324 1711 9129 5465 1147 2211 720 777 608 1386 1491 276 241 739 14329 10823 10740 361 1215 264 4318 258 4060 133 173
is_linear=0
shrinkage=0.037


Tree=10
num_leaves=31
num_cat=0
split_feature=5 10 0 16 19 21 17 13 0 5 1 18 22 12 2 23 21 6 6 22 3 23 22 5 18 16 15 0 0 21
split_gain=336.521 91.2445 84.5726 59.9866 55.1601 51.6008 42.4123 33.1981 45.4643 44.0556 53.2279 32.316 31.3088 29.6116 35.2932 34.3004 30.6524 29.6064 31.7448 28.6052 26.4864 48.3741 24.2945 23.0512 21.8168 32.0632 24.4954 21.7992 36.5382 20.6125
threshold=0.3952542868696205 2.8029010331479989 0.25971481107897393 0.30618744787212199 0.53017420747675792 0.027786784442058492 0.41674384851183521 3.8606743063089755 1.3104852269782648 0.33911454194489737 -0.5621299388719756 0.12890087426003841 0.58352272727272736 -1.445185878948082 1.287731377959942 14.516877472013727 0.74147653910571487 1.3771185638459815 1.3877069018984318 0.98376383063964257 -0.075781650895610883 9.254116311496297 0.36167797338683422 0.5441387611783316 0.54929759591556548 1.1456919113453889 16.294612954022558 6.356335556592394 1.5995925957477264 0.50029761904761916
decision_type=10 2 2 10 10 10 10 2 2 10 10 2 8 8 8 2 10 8 8 8 10 2 8 10 2 10 10 2 2 8
left_child=2 4 3 -1 13 -6 -7 8 -4 10 11 -10 -12 -2 15 -15 17 22 -19 -3 -5 -22 -16 -8 -23 -26 -27 28 -13 -20
right_child=1 19 7 20 5 6 23 -9 9 -11 12 27 -14 14 16 -17 -18 18 29 -21 21 24 -24 -25 25 26 -28 -29 -30 -31
leaf_value=0.007544530877141486 0.0046833944208155417 -0.023937080589179361 -0.0016468927555707915 0.0045080666300826742 -0.033188474799632266 0.0043070341141710558 -0.021565122009114059 0.0051722145818708211 0.010944707871083934 0.0021304619801442611 0.0048128727781432843 -0.063457826494917144 -0.024221248747441502 0.0048186159758687609 -0.045651151790612236 -0.051541216092943612 -0.047474581231604876 -0.065781482196538024 -0.045395195300728004 0.0063841758228734566 -0.048299272847722632 0.0029492038731732013 0.0029487407817139055 -0.044383641156733121 -0.00031568255730067139 -0.024929838781017892 -0.040920815413890033 -0.0061956373404642414 0.010531869625097475 -0.0087237998322281241
leaf_weight=15393 439 497 4685 6902 488 256 286 2097 319 223 54 101 272 612 254 194 117 128 194 924 83 5119 416 671 2223 275 245 106 205 722
leaf_count=15393 439 497 4685 6902 488 256 286 2097 319 223 54 101 272 612 254 194 117 128 194 924 83 5119 416 671 2223 275 245 106 205 722
internal_value=0 -0.00739951 0.00189339 0.0027911 -0.009848 -0.0151946 -0.0111071 -0.00147386 -0.00288163 -0.00906153 -0.0122144 -0.00666967 -0.0246477 -0.00689138 -0.00837259 -0.00192097 -0.0112126 -0.00996181 -0.0138574 0.000831627 0.00111315 -0.000343432 -0.00389163 -0.0146854 -4.67892e-05 -0.00270942 -0.0109805 -0.0135151 -0.00850589 -0.0114456
internal_weight=0 6198 38302 30240 4777 1701 1213 8062 5965 1280 1057 731 326 3076 2637 806 1831 1714 1044 1421 14847 7945 670 957 7862 2743 520 412 306 916
internal_count=44500 6198 38302 30240 4777 1701 1213 8062 5965 1280 1057 731 326 3076 2637 806 1831 1714 1044 1421 14847 7945 670 957 7862 2743 520 412 306 916
is_linear=0
shrinkage=0.037


Tree=11
num_leaves=31
num_cat=0
split_feature=0 10 2 5 5 2 0 15 16 6 11 23 14 19 16 23 7 5 0 5 2 6 0 2 15 20 6 22 0 13
split_gain=297.953 123.111 87.403 78.164 76.4791 47.879 47.6229 57.3538 45.5915 37.0724 35.3933 33.2927 28.1507 27.6205 25.4372 23.4517 27.7621 22.7802 35.4994 30.1369 22.151 21.7739 21.3134 36.0659 20.8223 20.7734 20.3048 19.1393 18.4348 40.413
threshold=0.65939410087951467 3.0201273556387074 0.62509015702378401 0.55295953360516292 1.0874789602991359 4.9552020672296662 1.3104852269782648 13.879076234316784 0.19610027803000449 0.62377868650791524 1.8688348091416842 12.195002752367239 2.8029010331479989 0.57196354888098366 62.613767307229814 14.887181534770455 -0.26674579496459677 0.23830966684770857 0.29781112474007859 0.33911454194489737 2.6249417836569742 0.62377868650791524 0.5058525527208203 0.79039719441003997 16.886405922810393 0.97285382279393218 0.39410781693553149 0.53662841567686026 6.356335556592394 0.89587973461402759
decision_type=2 2 10 10 10 8 2 8 10 8 2 2 2 10 10 2 8 10 2 10 10 10 2 10 10 10 10 10 2 2
left_child=2 3 8 6 5 13 -2 -8 25 -7 14 -6 -12 -5 28 -4 -17 -10 19 26 22 -22 -18 -24 -3 -1 -19 -15 29 -9
right_child=1 24 15 4 11 9 7 10 17 -11 12 -13 -14 27 -16 16 20 18 -20 -21 21 -23 23 -25 -26 -27 -28 -29 -30 -31
leaf_value=0.0075927766137496655 -0.00021944419658907031 0.0074483707194105027 0.00041728142553462954 -0.026660290855633241 0.010504081236877646 0.0082338062860223288 0.00077369398657513495 -0.052663841751311884 0.0037965136881727827 -0.059712501739994497 0.00011352894649412514 -0.032005305176201468 -0.034007888743796309 -0.0315987940070575 0.016056615186332043 -0.020432757675777933 -0.0051256331448312495 -0.023165045771586467 0.0010103521370125354 0.0036263325228302382 -0.019849974632666918 -0.01218094875221149 -0.028865364102112306 -0.0040359082768171373 -0.055167656932236617 -0.015584668884007224 0.012626398089666004 -0.065710026566149771 -0.015033718369885735 -0.061109886914605206
leaf_weight=12784 1755 1627 3416 936 400 81 483 122 16294 804 224 71 66 520 45 58 2137 188 1131 140 115 82 117 209 56 30 32 189 223 165
leaf_count=12784 1755 1627 3416 936 400 81 483 122 16294 804 224 71 66 520 45 58 2137 188 1131 140 115 82 117 209 56 30 32 189 223 165
internal_value=0 -0.00589774 0.00207855 -0.00834777 -0.0125985 -0.015147 -0.00421009 -0.00949652 0.00288663 -0.0220865 -0.0153099 0.00109107 -0.00483424 -0.0114137 -0.0207837 -0.00195251 -0.00451729 0.00167434 -0.00270318 -0.0128226 -0.00396512 -0.0159038 -0.00301022 -0.0118225 0.00295905 0.0045692 -0.0213625 -0.0169224 -0.0231366 -0.0169358
internal_weight=0 7767 36733 6084 3001 2530 3083 1328 30599 885 845 471 290 1645 555 6134 2718 17785 1491 360 2660 197 2463 326 1683 12814 220 709 510 287
internal_count=44500 7767 36733 6084 3001 2530 3083 1328 30599 885 845 471 290 1645 555 6134 2718 17785 1491 360 2660 197 2463 326 1683 12814 220 709 510 287
is_linear=0
shrinkage=0.037


Tree=12
num_leaves=31
num_cat=0
split_feature=0 10 16 1 5 15 0 16 6 5 23 0 3 23 4 16 19 17 0 20 19 21 1 11 21 22 1 17 14 5
split_gain=307.783 94.958 79.4509 72.6214 97.7179 45.5567 59.1236 46.7126 44.6809 39.3776 37.3255 36.3493 31.628 29.6141 25.6328 25.048 24.6897 26.1206 25.8442 22.1115 21.7244 21.1746 37.6757 26.8876 20.5956 46.307 25.5684 24.9057 22.9212 22.388
threshold=0.65939410087951467 3.0201273556387074 0.20041010320841166 1.5391257913267073 1.0874789602991359 13.879076234316784 1.2512618253563248 2.1921858610882956 1.3771185638459815 0.26791928842216012 10.02058786165807 6.356335556592394 1.6021320948650641 12.195002752367239 1.7398599351550064 2.3551414783100575 0.41749980069255793 1.3734068179869028 1.5995925957477264 0.6873602537632858 0.18515304147584769 0.9572112816481525 1.6885343828022015 2.740319461670996 0.45800699481420959 0.58199645149367629 -0.052314499323970011 74.592803328552961 2.524928003624769 0.035971402981476476
decision_type=2 2 10 10 10 8 2 10 8 10 2 2 10 2 8 10 10 8 2 10 10 8 10 2 10 10 10 10 2 10
left_child=2 3 -1 5 8 -2 -7 11 19 24 -11 16 -3 -6 -10 21 18 -18 -8 -5 -14 -12 23 -23 -4 26 -26 28 -28 -30
right_child=1 12 9 4 13 6 7 -9 14 10 15 -13 20 -15 -16 -17 17 -19 -20 -21 -22 22 -24 -25 25 -27 27 -29 29 -31
leaf_value=0.0070396705997807854 4.3118960117080047e-05 0.010378666847153346 0.0038563279984773912 -0.027104949174234536 0.010115430231113174 -0.0075524282212307437 -0.058848821098764818 0.0020474343158586442 0.015057427316485789 -0.022307939078037766 -0.00505542950283206 -0.01447747079019996 -0.00017148096709855174 -0.030821108884682012 -0.061138204790886316 0.0028758087551035232 -0.02877196514951328 -0.04990373200438343 0.010535553108833546 -0.043444472779405531 -0.025939208726412193 -0.027797345630334154 0.017058856179899978 -0.01137552057115372 -0.0065883572245124611 0.0020022624795521683 -0.071061508539202914 0.025149096384706315 -0.021767209708499151 -0.0040413081897740736
leaf_weight=13403 1456 1298 13432 549 400 1341 107 232 53 89 2001 223 62 71 957 675 156 232 189 118 323 200 134 157 694 5312 126 104 182 224
leaf_count=13403 1456 1298 13432 549 400 1341 107 232 53 89 2001 223 62 71 957 675 156 232 189 118 323 200 134 157 694 5312 126 104 182 224
internal_value=0 -0.00594061 0.00216618 -0.00809235 -0.0135644 -0.00510608 -0.00815611 -0.0143549 -0.0177467 0.000861911 -0.00291245 -0.0181446 0.00183784 0.00132674 -0.0226546 -0.00224835 -0.0139152 -0.0200551 -0.005867 -0.0103149 -0.00747544 -0.0039609 -0.0108461 -0.0171254 0.00147411 -0.000211249 -0.00638542 -0.0117444 -0.0149817 -0.0107032
internal_weight=0 7767 36733 6084 2148 3936 2480 1139 1677 23330 3256 907 1683 471 1010 3167 684 388 296 667 385 2492 491 357 20074 6642 1330 636 532 406
internal_count=44500 7767 36733 6084 2148 3936 2480 1139 1677 23330 3256 907 1683 471 1010 3167 684 388 296 667 385 2492 491 357 20074 6642 1330 636 532 406
is_linear=0
shrinkage=0.037


Tree=13
num_leaves=31
num_cat=0
split_feature=0 10 16 15 0 0 5 2 5 0 16 12 0 0 21 17 23 16 21 20 21 1 15 22 19 15 12 3 1 12
split_gain=254.559 78.098 72.1688 66.3865 80.1919 67.9263 45.1361 36.0322 35.6326 35.0713 31.6019 30.2529 30.1605 40.8998 29.9502 39.8672 29.7451 26.2858 25.7742 20.3683 19.9017 26.8907 32.9197 27.2895 19.694 18.5445 43.105 31.9632 18.1765 17.7039
threshold=0.68327189041186109 3.0201273556387074 0.20041010320841166 13.790806033126076 1.3104852269782648 0.6946169429869854 0.55295953360516292 3.7033800321469976 1.0182544449421116 0.20122243128046555 2.1921858610882956 2.7024635508031478 4.6347821498905342 1.5995925957477264 0.71892507582023712 1.3998142070200472 12.012840573659743 72.195612538555949 0.3621986992052782 0.97285382279393218 0.45800699481420959 53.694505292688682 12.791373383194122 0.58199645149367629 0.18515304147584769 16.366947548180068 1.777674030744707 0.46817305562348938 2.7132753610279328 -1.0000000180025095e-35
decision_type=2 2 10 8 2 2 10 8 8 2 10 10 2 2 10 10 2 10 10 10 10 10 10 10 10 10 10 8 10 10
left_child=2 3 19 5 6 -2 -5 10 -9 20 -6 -3 13 -10 16 -16 -7 -18 -8 -1 -4 23 -23 25 -13 -22 27 -27 -26 -12
right_child=1 11 9 4 7 14 18 8 12 -11 29 24 -14 -15 15 -17 17 -19 -20 -21 21 22 -24 -25 28 26 -28 -29 -30 -31
leaf_value=0.0068055491929207299 -0.05887609121362352 0.012702398845018654 0.00438466397899109 -0.00027781840312995226 -0.040026884454824392 0.0014845810636752394 -0.022602746923215997 -0.027489025090403282 -0.056671414718110519 -0.0044449783343403441 0.001971679246171875 -0.00016513617131590469 -0.0048744847599438909 0.010145737643806706 0.0075392566451943097 -0.061489565457659941 -0.014099995291297004 -0.035304877522642428 -0.013564842981853583 -0.015268503947490845 -0.0022576061210588896 -0.068432232723252412 0.015296655907445727 0.0023200087446946715 0.0010008772741278307 0.000184426018028016 0.012563187468753095 -0.045556335311041009 -0.052166702902866617 -0.034895157074173754
leaf_weight=13385 139 1183 11646 1038 591 1195 304 534 76 6063 225 68 104 168 91 162 965 143 176 30 885 82 55 4386 340 60 125 172 58 51
leaf_count=13385 139 1183 11646 1038 591 1195 304 534 76 6063 225 68 104 168 91 162 965 143 176 30 885 82 55 4386 340 60 125 172 58 51
internal_value=0 -0.00532735 0.00210466 -0.00729848 -0.0108446 -0.00299975 -0.00462227 -0.0162451 -0.0215104 0.000867493 -0.0108886 0.00179931 -0.012298 -0.00518667 -0.00162991 -0.0137138 -0.000302411 -0.00466935 -0.0140045 0.00426951 0.00171144 -6.65233e-05 -0.016263 0.00032774 -0.00618567 -0.00451394 -0.0116324 -0.0210696 -0.00304162 -0.000551783
internal_weight=0 7611 36889 5962 3267 2695 1518 1749 882 23474 867 1649 348 244 2556 253 2303 1108 480 13415 17411 5765 137 5628 466 1242 357 232 398 276
internal_count=44500 7611 36889 5962 3267 2695 1518 1749 882 23474 867 1649 348 244 2556 253 2303 1108 480 13415 17411 5765 137 5628 466 1242 357 232 398 276
is_linear=0
shrinkage=0.037


Tree=14
num_leaves=31
num_cat=0
split_feature=0 10 16 15 2 0 5 1 7 9 11 18 14 3 19 17 0 8 23 23 20 3 3 4 2 2 17 23 16 17
split_gain=221.829 78.4264 77.0642 63.8341 132.654 65.6199 44.552 35.523 36.7575 49.9586 37.3957 31.5569 49.2997 30.7445 27.6935 23.3311 22.493 21.4766 20.7767 23.273 20.3241 19.6646 19.168 18.7138 18.2626 17.1134 17.5648 16.9052 22.1532 21.9284
threshold=0.68327189041186109 3.0201273556387074 0.20041010320841166 13.790806033126076 6.6519350579058045 0.6946169429869854 0.56028922712318907 0.59023871107706427 0.066741580717911295 7.5000000000000009 1.4978661367769956 0.48604629872310717 1.8688348091416842 2.2913395263494061 0.47017393974753613 80.526183674063319 0.18227301117524242 0.080942347074861906 15.124989210917052 14.623414940505342 0.97285382279393218 3.0164700865572107 2.6917813172343164 0.14545408434987869 2.5269173156551701 1.9452284942226989 0.87287142235099557 12.012840573659743 72.195612538555949 88.243535375087106
decision_type=2 2 10 10 8 2 10 10 8 2 2 2 2 10 10 8 2 10 2 2 10 8 10 10 10 10 10 2 10 8
left_child=2 3 20 5 6 -2 18 16 9 10 -9 14 -13 -3 27 -6 -4 -11 19 -5 -1 25 -15 -16 -18 -10 -27 -7 -29 -30
right_child=1 13 7 4 15 11 -8 8 21 17 -12 12 -14 22 23 -17 24 -19 -20 -21 -22 -23 -24 -25 -26 26 -28 28 29 -31
leaf_value=0.0065537438727826629 -0.056697675838719451 0.006386827736664439 0.004085526924872033 -0.029291810994313616 -0.024703400816472369 0.00076243694586730008 -0.032772124031311224 0.019445604778252586 -0.0069821706502336571 -0.0028140445391048575 -0.01895055272139003 -0.05921445153572652 0.0005632233843707368 -0.050236534895460559 -0.0092084388230830611 -0.026471931162058364 -0.0008858009631316652 -0.019736149939280207 0.0017443929528095073 -0.033604036262429325 -0.014703569301433685 0.0039150406948933059 -0.031769181790056694 -0.022201956714500225 -0.0060944473719630743 -0.043625983497128984 -0.022264429698208594 -0.012916709157354657 -0.00016508090772401971 -0.033998597054304656
leaf_weight=13385 139 1393 14619 348 56 1609 944 47 1579 624 183 176 191 84 58 561 4337 193 696 180 30 1480 172 67 96 71 245 798 64 75
leaf_count=13385 139 1393 14619 348 56 1609 944 47 1579 624 183 176 191 84 58 561 4337 193 696 180 30 1480 172 67 96 71 245 798 64 75
internal_value=0 -0.00493844 0.00199935 -0.00691371 -0.0110028 -0.00332915 -0.00669495 0.000720905 -0.00226671 -0.0083233 -0.0235561 -0.00219172 -0.012365 0.00220319 -0.0007939 -0.0261397 0.00141434 -0.00403499 -0.00203693 -0.00757155 0.00423641 -0.000387815 -0.00958184 -0.017797 -0.000894352 -0.00288375 -0.0107436 4.08944e-05 -0.00390996 -0.0175415
internal_weight=0 7611 36889 5962 2785 3177 2168 23474 4422 1047 230 3038 367 1649 2671 617 19052 817 1224 528 13415 3375 256 125 4433 1895 316 2546 937 139
internal_count=44500 7611 36889 5962 2785 3177 2168 23474 4422 1047 230 3038 367 1649 2671 617 19052 817 1224 528 13415 3375 256 125 4433 1895 316 2546 937 139
is_linear=0
shrinkage=0.037


Tree=15
num_leaves=31
num_cat=0
split_feature=0 13 2 15 16 21 6 5 0 2 18 23 5 2 13 18 0 23 1 18 6 23 1 12 21 5 11 7 16 2
split_gain=201.239 80.7987 94.2061 84.9976 51.7905 50.7986 43.7095 40.7674 39.742 42.6841 36.371 32.2346 30.2293 29.0786 28.2418 23.7337 37.591 36.7998 35.7667 33.1005 22.353 47.9959 29.5372 45.4478 20.9568 20.8581 19.5 18.8171 24.3794 17.5075
threshold=0.21967952323897252 2.8617925509761908 1.3898286524848877 9.8326579778597001 0.30618744787212199 0.91667673107890502 -0.17413708369953917 0.18241763218780763 0.68327189041186109 2.2133809488853351 0.7709187914353598 16.06133670251992 1.0513197824382552 0.40903570475803036 2.4414009612931857 0.29922018866134198 6.356335556592394 12.012840573659743 2.8455593540193393 0.37974772848403809 -1.0015700377379788 9.254116311496297 -1.2442739214019702 1.4467267122167866 0.7506935421762434 0.56028922712318907 2.740319461670996 0.61039219991880211 1.6224816691336446 4.3455321276745442
decision_type=2 2 8 10 10 8 10 10 2 8 2 2 10 10 2 2 2 2 10 2 10 2 10 8 10 10 2 10 10 10
left_child=4 2 10 15 24 27 -3 14 9 26 -2 -8 -10 -12 -7 17 19 -4 -19 -17 29 -22 23 -23 -1 -13 -9 28 -5 -6
right_child=1 6 3 5 20 7 11 8 12 -11 13 25 -14 -15 -16 16 -18 18 -20 -21 21 22 -24 -25 -26 -27 -28 -29 -30 -31
leaf_value=0.0066469888935711549 -0.002802809508647855 0.0075735657422002344 0.0014014413973221659 -0.025523355857949372 0.0095640957346946331 0.012386471914789136 0.00074652535139266773 -0.01778260920438976 -0.054599861832686836 0.00068539583998424285 0.00065000923997531968 -0.0049645667936483694 0.00047666773373740889 -0.0092014357361774705 -0.032360686920719438 -0.05460278254053752 -0.0025031941170040872 -0.0072932407137004324 -0.038244478868358363 0.00098383301366982323 -0.046351503017535808 0.0058427892679797566 0.0010127814670018932 -0.044021915400752759 -0.001076843293662464 -0.036031332045141806 0.0036612004038536657 -0.031559555442152706 0.001834184574809563 -0.043441193643234746
leaf_weight=13889 4826 2114 936 537 3255 153 2008 104 923 174 56 1074 62 106 44 104 92 471 112 278 86 205 10503 156 1112 196 24 125 477 298
leaf_count=13889 4826 2114 936 537 3255 153 2008 104 923 174 56 1074 62 106 44 104 92 471 112 278 86 205 10503 156 1112 196 24 125 477 298
internal_value=0 -0.00257252 -0.00460753 -0.00841683 0.0026914 -0.0127933 0.00105214 -0.0173043 -0.0197036 -0.00796137 -0.00108232 -0.0016231 -0.0233038 -0.0183269 -0.00162969 -0.00265689 -0.00988493 -0.000401398 -0.00769848 -0.00477145 0.00111481 0.000287383 0.00050533 -0.00990093 0.00421564 -0.00623669 -0.0241795 -0.00691595 -0.00524619 0.00366487
internal_weight=0 14996 9604 4616 29504 2623 5392 1484 1287 302 4988 3278 985 162 197 1993 474 1519 583 382 14503 10950 10864 361 15001 1270 128 1139 1014 3553
internal_count=44500 14996 9604 4616 29504 2623 5392 1484 1287 302 4988 3278 985 162 197 1993 474 1519 583 382 14503 10950 10864 361 15001 1270 128 1139 1014 3553
is_linear=0
shrinkage=0.037


Tree=16
num_leaves=31
num_cat=0
split_feature=5 10 15 0 15 16 21 18 2 23 2 3 10 0 0 17 15 18 17 0 23 16 20 18 3 0 23 0 3 3
split_gain=190.821 69.2125 69.853 60.5655 70.3843 64.6199 60.3718 49.2919 48.1297 31.0335 31.9993 31.4965 30.5427 30.3877 26.9093 23.2053 22.8575 37.138 28.0448 27.6125 22.7841 20.3541 20.2632 19.1585 21.0847 18.4421 45.7912 18.4 15.6081 15.4718
threshold=0.40512377764780344 2.3502401828962087 9.8326579778597001 1.5353593277969042 13.879076234316784 0.20740359672544131 0.77641895141895156 0.49932556945073675 -1.3015106362290574 12.012840573659743 1.726587706927196 2.5237456594019645 1.2424533248940004 1.5995925957477264 1.1633437115882972 0.80482423447303841 11.606207495196879 0.29104389835613304 78.540779362341041 2.5546054196625225 16.60663844544732 0.65580530773507928 0.97285382279393218 0.71806093499888357 1.4979506028444693 -2.5927609362013455 9.254116311496297 6.356335556592394 -0.93226796463593076 2.1641265255406927
decision_type=10 2 10 2 10 10 8 2 10 2 10 10 2 2 2 10 10 2 8 2 2 8 10 2 8 2 2 2 8 10
left_child=3 2 9 5 7 22 14 13 -6 -2 28 -12 16 -5 23 -3 -8 19 -19 -18 -17 -20 -1 -4 -25 -7 -27 -9 -11 -22
right_child=1 15 6 4 8 25 12 27 -10 10 11 -13 -14 -15 -16 20 17 18 21 -21 29 -23 -24 24 -26 26 -28 -29 -30 -31
leaf_value=0.0061874714805551546 0.0026758818100557909 0.0043940681338363726 -0.0043668082448220201 -0.052582479586537632 -0.015200808374633099 0.009210224192510932 -0.052579666944877416 0.01439660409680496 -0.029470559580541428 -0.047546033720950516 -0.036947468605113713 0.0084213336867840147 -0.0223622137264139 0.0096902818522878464 -0.02944707321137343 -0.010428117845771825 0.011197940972232871 0.018920954094434558 0.033407312428223368 -0.0087186095151415132 0.010919470390667487 -0.023472274821252796 -0.014119694035415126 -0.008917555530353968 -0.0172179215766388 -0.044636497405886981 0.00089372385413187506 -0.0024105759346749371 0.0008289807454569518 -0.047044623818658267
leaf_weight=13931 747 1171 820 54 212 1127 202 23 131 23 147 54 170 865 852 395 180 48 27 60 25 452 30 88 62 91 21897 92 456 68
leaf_count=13931 747 1171 820 54 212 1127 202 23 131 23 147 54 170 865 852 395 180 48 27 60 25 452 30 88 62 91 21897 92 456 68
internal_value=0 -0.00514908 -0.00758304 0.00192157 -0.00569797 0.00220456 -0.0108239 -0.000880056 -0.020222 -0.000858416 -0.00657729 -0.0189677 -0.0175059 0.00197767 -0.00664664 0.00128867 -0.0200437 -0.0171274 -0.0226217 -0.00506283 -0.00548995 -0.0253237 0.00419215 -0.00243246 -0.0145903 0.00100409 0.000767482 -0.023717 -0.00137796 -0.0219665
internal_weight=0 6047 4388 38453 1377 37076 2961 1034 343 1427 680 201 1139 919 1822 1659 969 767 527 240 488 479 13961 970 150 23115 21988 115 479 93
internal_count=44500 6047 4388 38453 1377 37076 2961 1034 343 1427 680 201 1139 919 1822 1659 969 767 527 240 488 479 13961 970 150 23115 21988 115 479 93
is_linear=0
shrinkage=0.037


Tree=17
num_leaves=31
num_cat=0
split_feature=0 14 2 15 16 5 21 3 5 11 0 23 19 23 1 7 18 6 23 5 20 6 23 15 13 17 2 2 18 21
split_gain=187.481 85.9901 103.187 99.8704 50.9667 49.8559 45.496 45.1336 37.9574 32.3866 31.4124 36.1845 58.2418 30.3747 35.7667 25.3458 21.8571 20.6935 31.7531 28.0656 20.4099 19.9929 48.8049 18.6245 19.5507 24.8077 18.2842 51.7159 17.8342 27.5784
threshold=0.21967952323897252 2.4414009612931857 1.3898286524848877 9.8326579778597001 0.26500434395175149 0.17770851932508988 0.7506935421762434 0.081142006799582875 1.0513197824382552 2.0126758453675748 3.1406583425616819 15.192895557542078 0.34715998308706392 12.012840573659743 2.8455593540193393 -0.0086368449554814538 0.49932556945073675 0.21874720676317597 14.535372957807821 -0.354005413175766 0.97285382279393218 -1.2493802917455517 9.254116311496297 15.933635128172668 3.1984648276080736 0.70382797756890159 4.3455321276745442 53.920426919427406 0.58748409574859206 0.86686075261494977
decision_type=2 2 8 8 10 8 8 10 8 2 2 2 10 2 10 8 2 10 2 10 10 10 2 10 2 10 10 10 2 8
left_child=4 2 15 13 20 -5 -7 -3 10 -9 11 12 -8 -4 -15 17 -10 19 -19 -2 -1 26 -23 -11 -25 -26 -6 -28 -17 -30
right_child=1 7 3 5 21 6 8 9 16 23 -12 -13 -14 14 -16 28 -18 18 -20 -21 -22 22 -24 24 25 -27 27 -29 29 -31
leaf_value=0.006065869794860985 -0.057238618265481274 0.0028009166904826911 0.00064930566456641132 0.011699236009161396 0.0088694458973880268 -0.027102077915721466 -0.050634219267916954 -0.0083176726946809637 -0.050636927841835738 -9.6658325727405614e-05 -0.029000999781731974 -0.022603800652866442 0.00062696841130194453 -0.0070540630948754245 -0.035462376811839898 0.0015369410185281044 -0.0023213846250919631 -0.0083960209630812785 -0.04578683047327535 -0.00083721682837883059 -0.013597265356104766 -0.042984947001869167 0.00091072468204377857 9.3803371658458305e-05 -0.0048139456048862592 -0.028430519065498504 -0.041866937261037941 0.031357035294972087 -0.0039924290745788869 -0.026500968838788233
leaf_weight=13750 104 3592 788 194 3069 789 249 53 350 2654 381 226 253 471 112 2108 114 158 149 829 30 86 12275 409 377 269 77 217 284 83
leaf_count=13750 104 3592 788 194 3069 789 249 53 350 2654 381 226 253 471 112 2108 114 158 149 829 30 86 12275 409 377 269 77 217 284 83
internal_value=0 -0.00242202 -0.00517052 -0.00935229 0.00265879 -0.0136737 -0.0151547 0.000434128 -0.0187915 -0.00239823 -0.0225092 -0.0180044 -0.0124696 -0.0012957 -0.00769848 -0.000750109 -0.00990579 -0.00506781 -0.0134004 -0.002326 0.0043015 0.00121917 0.000531006 -0.00198786 -0.00614638 -0.0101542 0.0037486 -0.00506598 0.0014131 -0.00611428
internal_weight=0 14996 7642 3927 29504 2556 2362 7354 1573 3762 1109 728 502 1371 583 3715 464 1240 307 933 13780 15724 12361 3709 1055 646 3363 294 2475 367
internal_count=44500 14996 7642 3927 29504 2556 2362 7354 1573 3762 1109 728 502 1371 583 3715 464 1240 307 933 13780 15724 12361 3709 1055 646 3363 294 2475 367
is_linear=0
shrinkage=0.037


Tree=18
num_leaves=31
num_cat=0
split_feature=0 10 16 15 1 11 7 0 13 22 23 2 2 23 5 9 5 15 20 3 1 21 0 7 23 5 0 15 9 20
split_gain=182.834 80.2858 66.4414 52.148 102.737 66.8109 45.6939 44.7179 56.5307 28.3384 27.2129 37.7601 26.4503 24.5158 23.2861 22.9291 24.5744 20.8082 20.1805 18.8608 42.8876 25.4615 27.7724 25.128 17.1988 17.1447 16.9682 17.049 32.9853 16.7788
threshold=0.68327189041186109 3.0201273556387074 0.19610027803000449 10.583094262786378 1.5391257913267073 1.0000000180025095e-35 0.65513206999898765 6.356335556592394 1.2424533248940004 inf 12.195002752367239 1.726587706927196 0.2894336819151157 12.012840573659743 1.0182544449421116 28.500000000000004 0.66984616872461311 16.886405922810393 0.97285382279393218 0.9738860803168673 -0.94641683437457846 0.98238777093029162 0.40320159332638095 0.54384064788203834 9.254116311496297 0.74268156073705993 0.18227301117524242 17.74688196996641 8.5000000000000018 0.36742041237157702
decision_type=2 2 10 8 10 2 8 2 2 8 2 10 10 2 10 2 10 10 10 10 10 10 2 8 2 10 2 10 2 8
left_child=2 3 18 10 5 7 9 8 -5 13 -2 -12 -4 -6 -8 -7 -17 -3 -1 20 23 26 -23 -14 -21 -13 29 -28 -29 -22
right_child=1 17 12 4 6 15 14 -9 -10 -11 11 25 19 -15 -16 16 -18 -19 -20 24 21 22 -24 -25 -26 -27 27 28 -30 -31
leaf_value=0.0058577700071654843 0.0012265561290602267 0.0056040787394466421 0.0029279984804684092 0.0074695583376245779 -0.051984837272210684 -0.00080623980572881553 -0.04876075315500402 -0.0082895872000265571 -0.013802037840615617 0.0031599992656143588 -0.0025472380904887184 -0.011202470647390382 -0.0125287279715749 -0.030948531076900515 -0.047083773829110151 -0.01511707726468714 -0.033605054692598828 -0.044252043531944465 -0.01309416653792889 -0.041394503962800006 -0.0059381895854600389 -0.00502827311335246 -0.020109447505712853 -0.042459869126763403 0.001113939873028233 -0.035286209092976112 -0.0033563972306140098 -0.025520432991753068 0.00011708154498692402 0.0020432945639570418
leaf_weight=13105 904 1593 13902 212 95 2030 571 242 92 128 459 58 96 492 56 451 61 56 30 22 529 246 75 123 3615 111 2103 83 86 2874
leaf_count=13105 904 1593 13902 212 95 2030 571 242 92 128 459 58 96 492 56 451 61 56 30 22 529 246 75 123 3615 111 2103 83 86 2874
internal_value=0 -0.00428216 0.0020164 -0.0062807 -0.00831565 -0.00460113 -0.0168629 -0.0163441 -0.00689661 -0.0104694 -0.000396374 -0.00631286 0.000848732 -0.0139092 -0.0241537 -0.00207884 -0.00907598 0.00294364 0.00412807 -0.000617914 -0.00185634 -0.00126893 -0.0114067 -0.0179389 0.00149834 -0.0212649 -0.000695503 -0.00317158 -0.0144779 0.00095764
internal_weight=0 7611 36889 5962 4430 3088 1342 546 304 715 1532 628 23754 587 627 2542 512 1649 13135 9852 6215 5996 321 219 3637 169 5675 2272 169 3403
internal_count=44500 7611 36889 5962 4430 3088 1342 546 304 715 1532 628 23754 587 627 2542 512 1649 13135 9852 6215 5996 321 219 3637 169 5675 2272 169 3403
is_linear=0
shrinkage=0.037


Tree=19
num_leaves=31
num_cat=0
split_feature=0 10 6 18 16 10 6 0 16 5 5 6 5 23 9 0 16 16 20 9 18 18 3 10 14 16 6 13 15 1
split_gain=181.601 73.4951 64.7483 70.1521 55.912 54.9835 53.152 38.0506 35.9967 30.693 71.8028 28.2959 28.1146 33.9389 33.2523 23.173 30.4535 20.5764 20.1844 19.1233 18.2398 17.8723 17.7273 17.5178 31.2836 18.2124 17.2073 39.2216 16.6094 20.3363
threshold=0.42857486457425137 2.3502401828962087 1.2821793903035943 0.47551800874960254 0.20740359672544131 1.2424533248940004 1.5596234410447323 4.6347821498905342 1.1079528981516005 0.22902904347162045 0.18241763218780763 0.29781987512718228 0.28896520233945833 12.855417718007944 7.5000000000000009 1.4144730091219915 2.6306894144457744 105.34791336294937 0.97285382279393218 40.500000000000007 -1.0000000180025095e-35 0.35605476390764296 6.0810524348105774 0.89587973461402759 1.8688348091416842 0.37081513322690834 -1.2493802917455517 6.6777112037396167 14.156763389620751 1.0135523283372814
decision_type=2 2 8 2 10 2 8 2 8 8 10 10 10 2 2 2 10 10 10 2 2 2 10 2 2 8 10 2 10 10
left_child=4 2 15 6 18 -5 7 -4 -7 10 -8 -3 26 14 20 28 -17 23 -1 22 -14 -22 -13 25 -25 -11 27 -6 -2 -30
right_child=1 11 3 5 12 8 9 -9 -10 17 -12 19 13 -15 -16 16 -18 -19 -20 -21 21 -23 -24 24 -26 -27 -28 -29 29 -31
leaf_value=0.0056410325169003617 0.001509905073654531 0.0056219654549643314 -0.046956605288268873 -0.024576176971058204 0.006642485137363742 -0.014272012106219855 0.0023714258999913687 0.0030430792927866263 0.0012354282967524124 -0.0081162370552544001 -0.025593134562528128 -0.0021658045033284387 0.0066629878360362294 -0.0010950162656663128 -0.002062496263866738 -0.03236166766897268 -0.0072462604629888626 -0.021716699561605074 -0.01260968237602552 -0.017717817584660251 -0.039944324928353023 0.033035485622963698 -0.030633501070410362 -0.048733530638875845 0.0077866491150548446 0.00057989877820222556 0.00086732818158227905 -0.015813797631577146 -0.0023410940668393237 -0.018411948045815887
leaf_weight=13041 1400 1958 256 788 3790 121 180 66 240 23 159 1159 26 954 151 524 515 43 30 115 168 20 27 79 114 1300 15525 44 1333 351
leaf_count=13041 1400 1958 256 788 3790 121 180 66 240 23 159 1159 26 954 151 524 515 43 30 115 168 20 27 79 114 1300 15525 44 1333 351
internal_value=0 -0.00328526 -0.00530293 -0.0091081 0.00223661 -0.0165295 -0.005267 -0.0191667 -0.00457129 -0.00290889 -0.012999 0.00135308 0.00103925 -0.00418751 -0.0137828 -0.00219364 -0.00697263 -0.000714819 0.0041308 -0.00287642 -0.0231637 -0.0271808 -0.00147956 1.07358e-06 -0.0104123 0.00152019 0.00139537 0.00361513 -0.000583602 -0.0030594
internal_weight=0 10751 7492 3369 33749 1149 2220 322 361 1898 339 3259 20678 1319 365 4123 1039 1559 13071 1301 214 188 1186 1516 193 1323 19359 3834 3084 1684
internal_count=44500 10751 7492 3369 33749 1149 2220 322 361 1898 339 3259 20678 1319 365 4123 1039 1559 13071 1301 214 188 1186 1516 193 1323 19359 3834 3084 1684
is_linear=0
shrinkage=0.037


Tree=20
num_leaves=31
num_cat=0
split_feature=0 13 2 15 19 16 2 14 18 5 1 6 23 1 13 18 11 21 17 15 8 21 12 15 1 23 20 14 18 18
split_gain=147.068 71.1176 63.8069 47.3858 70.1163 44.0018 39.4589 54.0447 44.5036 44.3259 42.917 36.2495 30.5406 35.7667 28.4364 27.7287 26.2331 21.626 21.4577 20.8019 20.2125 20.0026 21.4649 19.7024 19.3788 49.2881 17.6078 17.4119 40.4829 18.128
threshold=0.21967952323897252 2.8617925509761908 1.3898286524848877 9.8326579778597001 0.16707717569786543 0.30618744787212199 2.3580349842004251 2.1383330595080281 0.28390009691752677 0.28783438483842683 0.09441700297190074 -0.17413708369953917 12.012840573659743 2.8455593540193393 1.0000000180025095e-35 0.7709187914353598 2.9174053685313028 0.7506935421762434 78.540779362341041 15.26241139282209 0.7811595175767635 0.20019841269841274 -0.54930614433405478 16.814309408055063 -2.2448975926625629 9.254116311496297 0.77454060455044915 0.89587973461402759 0.49112758527880557 0.3875462167141917
decision_type=2 2 8 8 8 10 10 2 2 8 8 10 2 10 2 2 2 10 10 10 8 8 8 10 10 2 10 2 2 2
left_child=5 2 15 12 14 17 7 8 -6 -10 -9 -3 -4 -14 -5 -2 -17 -1 -8 -13 -20 22 23 -11 -7 -26 -12 28 29 -23
right_child=1 11 3 4 6 24 18 10 9 21 26 19 13 -15 -16 16 -18 -19 20 -21 -22 27 -24 -25 25 -27 -28 -29 -30 -31
leaf_value=0.0055673652215061037 -0.00096022032586917595 0.0065353177540199902 0.00055844252340874444 -0.045219210892602925 -0.0058113927306514606 0.0081871685053248808 0.00012291703003572497 -0.037128440481605136 0.010174307627299902 -0.039936852943552342 0.0021629692757673506 0.00090177651447735348 -0.0064436837482860282 -0.032866135388155186 -0.0094110461076948974 -0.0070977539270014505 -0.0054926465951535422 -0.0013425911655632144 0.011024544333270521 -0.0070018858853966573 -0.025251036216047393 -0.038241111978252348 0.010329888096671123 0.014634046563467541 -0.039894998458894944 0.0012092663734182942 -0.056790489942593794 -0.046930390005237438 -0.020309373861630453 0.018771021512061749
leaf_weight=13889 4826 2114 793 270 230 1131 858 85 94 91 567 1766 471 112 55 80 82 1112 34 1512 69 22 72 31 86 13286 22 523 114 103
leaf_count=13889 4826 2114 793 270 230 1131 858 85 94 91 567 1766 471 112 55 80 82 1112 34 1512 69 22 72 31 86 13286 22 523 114 103
internal_value=0 -0.0019779 -0.0038871 -0.00702211 -0.00946515 0.0025221 -0.0076477 -0.0106666 -0.0151318 -0.0183608 -0.00218673 0.00142269 -0.00126962 -0.00769848 -0.0257662 -0.000985886 -0.0160429 0.00392706 -0.0015093 -0.00101358 -0.0174665 -0.0207446 -0.0101376 -0.0195924 0.00106889 0.000675551 0.00136008 -0.0234451 -0.0151714 -0.000629
internal_weight=0 14996 9604 4616 3240 29504 2915 1954 1280 1050 674 5392 1376 583 325 4988 162 15001 961 3278 103 956 194 122 14503 13372 589 762 239 125
internal_count=44500 14996 9604 4616 3240 29504 2915 1954 1280 1050 674 5392 1376 583 325 4988 162 15001 961 3278 103 956 194 122 14503 13372 589 762 239 125
is_linear=0
shrinkage=0.037


Tree=21
num_leaves=31
num_cat=0
split_feature=0 14 2 15 19 2 21 6 18 5 14 11 23 1 16 13 7 10 2 23 6 1 12 6 23 5 0 0 17 21
split_gain=136.391 67.4557 66.682 64.756 58.0654 51.5563 49.3336 43.2921 37.5171 36.7305 30.7696 30.5755 29.0061 36.7395 28.8913 28.4364 25.5797 24.1739 23.6091 35.0234 24.5687 20.6983 26.7636 20.5456 31.7531 27.9428 20.4961 21.9198 23.3827 20.1873
threshold=0.21967952323897252 2.4414009612931857 1.3898286524848877 9.8326579778597001 0.16707717569786543 2.3981235156619376 0.45800699481420959 0.104265417536703 0.28390009691752677 0.32262953206143358 2.1383330595080281 2.0126758453675748 12.012840573659743 2.8455593540193393 0.30618744787212199 1.0000000180025095e-35 -0.0086368449554814538 1.7005986908310777 1.6567513955267457 16.004467614993775 0.21125526927848876 53.694505292688682 0.34657359027997264 0.21874720676317597 14.535372957807821 -0.354005413175766 -0.090924027825050782 -0.081135505625756749 0.9867748726784864 0.59942956349206356
decision_type=2 2 8 8 8 10 10 10 2 8 2 2 2 10 10 2 8 2 10 2 8 10 10 10 2 10 2 2 8 8
left_child=6 2 16 12 15 8 14 -3 -6 -10 29 -9 -4 -14 -1 -5 23 -7 21 20 -20 -8 -23 25 -25 -2 -16 28 -28 -11
right_child=1 7 3 4 5 17 18 11 9 10 -12 -13 13 -15 26 -17 -18 -19 19 -21 -22 22 -24 24 -26 -27 27 -29 -30 -31
leaf_value=0.0053613727083103779 -0.053858048661037355 0.0026650935069309619 0.00053778015004262054 -0.043546100089576621 -0.0055963711996173567 -0.0059097213040412207 0.0011645235176018177 -0.0068351370317023957 0.0097978582450898039 -0.036988721347092531 0.0014322020976940528 -0.0051034480372933308 -0.0062052674495994432 -0.031650088378793441 0.0064751160849488964 -0.0090628374017101849 0.001132052528670226 -0.018158017677570554 -0.038418883515915832 -0.035889480459587564 0.0086025704952679867 0.044434058749764548 -0.010446664194411953 -0.007751897525447562 -0.044018808272084133 -0.00065426030038663412 0.013982558092334035 1.4127014338457531e-06 -0.0065977126689941434 -0.044537255368798497
leaf_weight=13283 104 3411 788 270 255 762 6213 56 128 257 115 3887 471 112 5760 55 2475 36 109 93 248 46 64 158 149 829 43 3581 64 678
leaf_count=13283 104 3411 788 270 255 762 6213 56 128 257 115 3887 471 112 5760 55 2475 36 109 93 248 46 64 158 149 829 43 3581 64 678
internal_value=0 -0.0018792 -0.00431355 -0.00767519 -0.011155 -0.00902646 0.00245438 0.000650473 -0.0132238 -0.0160092 -0.0182903 -0.00198994 -0.00118775 -0.00744462 0.00328025 -0.0257662 -0.000760069 -0.00148918 -0.000317355 -0.00850589 -0.00323745 0.000265413 -0.0156443 -0.00509765 -0.0134004 -0.00236566 0.00171619 -0.000437499 -0.0169394 -0.0205117
internal_weight=0 14996 7642 3927 2556 2231 29504 7354 1433 1178 1050 3943 1371 583 22731 325 3715 798 6773 450 357 6323 110 1240 307 933 9448 3688 107 935
internal_count=44500 14996 7642 3927 2556 2231 29504 7354 1433 1178 1050 3943 1371 583 22731 325 3715 798 6773 450 357 6323 110 1240 307 933 9448 3688 107 935
is_linear=0
shrinkage=0.037


Tree=22
num_leaves=31
num_cat=0
split_feature=5 1 6 5 16 3 15 21 10 16 17 17 13 21 20 19 12 0 3 9 2 23 12 16 18 3 3 9 3 15
split_gain=120.002 61.4592 47.9359 75.3311 41.7222 31.0554 29.0733 45.6981 50.7523 51.5677 29.8286 21.7111 21.1736 20.5279 20.192 19.8685 21.6358 19.2279 22.1053 17.284 16.1445 23.0975 43.5163 24.2104 18.5065 19.9194 32.707 16.1429 15.9401 19.4034
threshold=0.15579151506567621 -0.22464474567078541 1.2821793903035943 0.99878029412606761 0.18036637708446582 1.298382192974562 15.359582269739654 0.25567765567765571 1.2424533248940004 1.4667132384586636 1.121179850212882 0.86295949616625234 2.8029010331479989 0.99963126843657835 0.97285382279393218 0.42338069958519203 0.34657359027997264 -0.11511436863631341 -0.33984351761361176 27.500000000000004 0.60069956051475992 15.054885061509941 1.178326157132161 105.34791336294937 0.71806093499888357 2.1102002839150096 1.6973588642950048 71.500000000000014 2.970708352446485 15.552604209845915
decision_type=10 10 10 10 10 10 10 8 2 10 10 8 2 10 10 10 8 2 10 2 10 2 8 10 2 8 10 2 10 10
left_child=4 5 6 11 14 -2 12 10 9 15 -8 -4 17 -5 -1 16 -9 18 -3 28 -19 23 -23 24 25 26 -22 -14 29 -10
right_child=1 2 3 13 -6 -7 7 8 19 -11 -12 -13 27 -15 -16 -17 -18 20 -20 -21 21 22 -24 -25 -26 -27 -28 -29 -30 -31
leaf_value=0.0051630019181028936 -0.003751609988471391 0.029225719570654722 0.0019809246399234565 0.0012985151639490333 0.0019595265980091414 0.0010572383608215446 0.001786978411963379 -0.040401269526985473 -0.0043399670743557092 0.0014911636616489982 -0.030283667821798282 -0.042086685799499833 0.0034798443211323964 -0.009296668505792683 -0.012136535625138006 -0.02367321621463269 0.0071653706328353465 0.0011191570585738189 -0.010060137619218715 -0.012299336414268232 -0.0081179248426931187 0.0019093514805009545 -0.035853296643542192 -0.018526081398448586 -0.023250173557838216 0.00033702878817393531 -0.035620138657250104 -0.028966731503015812 -0.020937356156329866 0.0011532170975644285
leaf_weight=12285 144 35 62 428 19068 47 1435 33 148 228 147 436 2944 25 30 523 76 2306 60 347 765 168 131 37 60 1483 104 25 68 852
leaf_count=12285 144 35 62 428 19068 47 1435 33 148 228 147 436 2944 25 30 523 76 2306 60 347 765 168 131 37 60 1483 104 25 68 852
internal_value=0 -0.00175846 -0.00145059 -0.00944613 0.0024557 -0.0225934 -0.000815622 -0.00346053 -0.00681898 -0.0139077 0.00136909 -0.019378 0.000441019 0.0014724 0.0041344 -0.0193496 -0.00497939 -0.00099387 -0.0174854 -0.00251064 -0.000683878 -0.00259953 -0.0123076 -0.00141426 -0.000958626 -0.00044098 -0.00488915 0.00292948 -0.000179734 0.000999
internal_weight=0 13117 12926 951 31383 191 11975 3857 2275 860 1582 498 8118 453 12315 632 109 5149 95 1415 5054 2748 299 2449 2412 2352 869 2969 1068 1000
internal_count=44500 13117 12926 951 31383 191 11975 3857 2275 860 1582 498 8118 453 12315 632 109 5149 95 1415 5054 2748 299 2449 2412 2352 869 2969 1068 1000
is_linear=0
shrinkage=0.037


Tree=23
num_leaves=31
num_cat=0
split_feature=5 1 16 6 5 15 21 19 17 0 6 17 0 0 21 0 7 0 10 21 20 3 1 19 10 15 15 7 5 8
split_gain=120.419 82.2637 45.7005 45.6423 75.3311 33.6144 72.1725 42.3485 32.4316 22.0683 22.5 21.7111 21.1681 36.5124 56.7397 29.9448 24.5969 20.7406 22.87 20.5279 19.9145 19.2871 21.353 18.9419 18.8392 18.6676 34.0059 18.1096 36.1605 21.5613
threshold=0.17770851932508988 -0.22464474567078541 0.20740359672544131 1.2821793903035943 0.99878029412606761 15.359582269739654 0.99862921866384013 0.40420611004938128 1.0798831557306114 -0.11511436863631341 -0.38908489769249893 0.86295949616625234 -0.058326602973285395 -0.020112100330247778 0.8869967190842053 -0.022774497125929976 0.086759652373633991 0.43643073390258597 3.6505739029280164 0.99963126843657835 0.97285382279393218 0.007699207942317674 0.46379296273889897 0.95342743310928924 2.8029010331479989 17.205510095970297 16.597514805120788 0.12782836864694089 -0.56105432325257998 -1.5000604840743887
decision_type=10 10 10 10 10 10 8 10 10 2 8 8 2 2 8 2 8 2 2 10 10 10 10 10 2 10 10 8 10 10
left_child=2 -2 20 5 11 9 8 -8 -7 10 -3 -5 21 14 15 -14 -16 18 -9 -6 -1 -4 23 -23 -11 26 -19 28 29 -15
right_child=1 3 12 4 19 6 7 17 -10 24 -12 -13 13 27 16 -17 -18 25 -20 -21 -22 22 -24 -25 -26 -27 -28 -29 -30 -31
leaf_value=0.0048369199394020295 -0.0036128004188979469 -0.0096879125273076246 0.0055635137527760359 0.0019076304282462891 0.0012504701028829175 0.00052017192505214214 0.0069002519194204387 0.0091771620755750002 -0.02518981306091992 -0.0025059148470908724 0.0047592408417371215 -0.040529478424918344 0.0032419674102959553 -0.051937803344705318 0.013024830804770406 -0.0077776814497523862 -0.039109914984667621 -0.013822207460224233 -0.011352413661655254 -0.0089526917710783527 -0.0116874838070079 0.0037970921993535378 -0.0086481538124033152 -0.064027044743692016 0.0033258263443290297 -0.022797307214691278 0.0017999341673490003 0.0030603925510474376 -0.00089559764008438853 -0.01593303767053162
leaf_weight=13622 158 60 5744 62 428 2261 117 105 506 5388 36 436 466 91 29 99 162 160 37 25 30 4011 918 24 2087 191 106 3331 3744 66
leaf_count=13622 158 60 5744 62 428 2261 117 105 506 5388 36 436 466 91 29 99 162 160 37 25 30 4011 918 24 2087 191 106 3331 3744 66
internal_value=0 -0.00201711 0.00230165 -0.00166802 -0.00944613 -0.000998853 -0.00400704 -0.0144773 -0.0012977 0.000385047 -0.017242 -0.019378 0.0011127 -0.000328442 -0.00806541 -0.00217187 -0.0254992 -0.0184542 -0.00610292 0.0014724 0.00392893 0.00218888 0.000496971 0.00165574 0.000611428 -0.0222921 -0.0159553 0.000480345 -0.00123056 -0.0186266
internal_weight=0 12163 32337 12005 951 11054 3483 716 2767 7571 96 498 18685 7988 756 565 191 599 142 453 13652 10697 4953 4035 7475 457 266 7232 3901 157
internal_count=44500 12163 32337 12005 951 11054 3483 716 2767 7571 96 498 18685 7988 756 565 191 599 142 453 13652 10697 4953 4035 7475 457 266 7232 3901 157
is_linear=0
shrinkage=0.037


Tree=24
num_leaves=31
num_cat=0
split_feature=5 1 6 5 16 23 21 19 23 1 0 6 17 21 17 19 9 9 16 8 7 12 16 15 15 21 3 1 15 19
split_gain=109.899 83.1151 47.2845 75.3311 37.0387 26.4121 43.4196 42.6885 41.967 25.243 22.7032 22.5 21.7111 20.5279 19.1144 23.4236 18.7078 18.6917 22.3977 20.4679 18.5027 18.2613 21.8545 18.2592 35.4787 16.8833 15.1621 14.8637 14.1644 13.59
threshold=0.17770851932508988 -0.22464474567078541 1.2821793903035943 0.99878029412606761 0.47515520412661483 15.054885061509941 0.99963126843657835 0.40420611004938128 17.648100360016791 -2.2448975926625629 -0.11511436863631341 -0.38908489769249893 0.86295949616625234 0.99963126843657835 1.0798831557306114 -1.0000000180025095e-35 46.500000000000007 9.5000000000000018 0.56211393367817553 0.58869890489086252 0.12935149146064853 -1.0000000180025095e-35 105.34791336294937 17.063775481810772 16.597514805120788 0.48427683427683438 -0.95272345957247728 0.10486946193253906 15.680320758752876 0.16600156663826762
decision_type=10 10 10 10 10 2 8 10 2 10 2 8 8 10 10 10 2 2 10 8 10 8 10 10 10 10 10 8 10 10
left_child=4 -2 5 12 25 10 14 -8 23 -6 11 -3 -4 -5 15 20 26 -17 -19 -20 -7 -12 28 24 -9 27 -16 -1 -23 -14
right_child=1 2 3 13 9 6 7 8 -10 -11 21 -13 29 -15 16 17 -18 18 19 -21 -22 22 -24 -25 -26 -27 -28 -29 -30 -31
leaf_value=0.0052126505472318381 -0.0034791268033987207 -0.009329459763797239 0.0018370481024011771 0.0012042027090762531 0.0073663114825057007 -0.023233255550064804 0.0061207840800407594 -0.030433470184011102 0.00080799828080247522 3.1558453835677899e-05 -0.0093524682091789078 0.004583148930592848 -0.02871841569024481 -0.0086214421755484577 -0.02303213949747494 0.0021102089851696287 -0.03883222592292819 0.00042782089548677613 -0.013019791516866011 -0.020181920339772591 0.0016906421366132344 0.00096524870302921778 -0.017747897537363617 -0.021953806847747701 0.0001373985370650177 0.00094880845459374989 -0.013534411440868373 0.0026733314092203613 -0.01652271790413487 -0.039029887723196363
leaf_weight=9651 158 60 62 428 1184 79 258 245 102 10682 1342 36 49 25 29 1060 61 1329 344 120 35 5136 47 147 119 3064 467 7756 38 387
leaf_count=9651 158 60 62 428 1184 79 258 245 102 10682 1342 36 49 25 29 1060 61 1329 344 120 35 5136 47 147 119 3064 467 7756 38 387
internal_value=0 -0.00188022 -0.00152933 -0.00944613 0.00224559 -0.000848229 -0.00307445 -0.0104718 -0.0157858 0.000600849 0.000621099 -0.017242 -0.019378 0.0014724 -0.00124611 -6.54331e-05 -0.00753531 0.000591727 -0.00171098 -0.00870967 -0.0165117 0.00088239 0.00187189 -0.0201111 -0.0156665 0.00319896 -0.00515732 0.00364476 0.00210005 -0.0222913
internal_weight=0 12163 12005 951 32337 11054 4395 871 613 11866 6659 96 498 453 3524 2967 557 2853 1793 464 114 6563 5221 511 364 20471 496 17407 5174 436
internal_count=44500 12163 12005 951 32337 11054 4395 871 613 11866 6659 96 498 453 3524 2967 557 2853 1793 464 114 6563 5221 511 364 20471 496 17407 5174 436
is_linear=0
shrinkage=0.037


Tree=25
num_leaves=31
num_cat=0
split_feature=0 16 10 5 15 23 23 0 15 2 0 15 9 9 1 19 21 6 6 23 14 1 23 18 17 20 2 18 5 17
split_gain=105.353 45.8536 44.1556 34.1104 45.8863 43.4025 42.8692 27.1384 37.7022 92.4974 33.7198 26.7893 38.15 23.9215 23.0781 22.8612 22.5081 21.91 21.6522 48.7596 38.8849 21.3282 28.1688 27.2824 21.351 19.9857 18.7339 37.3193 23.5293 17.067
threshold=0.42857486457425137 0.18036637708446582 2.8029010331479989 0.60955215462308165 9.8326579778597001 10.02058786165807 12.195002752367239 1.2106370842920813 13.879076234316784 -1.3015106362290574 1.5995925957477264 16.886405922810393 8.5000000000000018 46.500000000000007 3.9204663739143011 0.27661472031062367 0.81632193561226674 1.22169911216862 -1.2493802917455517 9.254116311496297 7.6172580145659845 0.91501286692063843 15.928963860244776 0.63682195821807608 0.41898327559592857 0.97285382279393218 2.9159628376589106 0.49881476631501348 0.40825618859280499 0.77717858471352064
decision_type=2 10 2 10 10 2 2 2 10 10 2 10 2 2 10 8 10 8 10 2 2 10 2 2 8 10 10 2 10 10
left_child=1 25 3 7 6 -6 -5 -2 10 -10 15 12 -7 29 -8 -9 -14 -13 20 -20 26 -21 24 -24 -23 -1 -3 28 -28 -4
right_child=2 18 13 4 5 11 14 8 9 -11 -12 17 16 -15 -16 -17 -18 -19 19 21 -22 22 23 -25 -26 -27 27 -29 -30 -31
leaf_value=0.0046940915472340585 -0.00084924565876253583 0.0056137448051154035 0.0047083067613101614 0.0024555751522444772 -0.037433990464200546 0.00038156337034178796 -0.027655834309705748 0.0027996665105224552 -0.019636907272280537 -0.012170042031489654 0.00091095479102361267 -0.038356440257836716 -0.019104139086384433 -0.015366350136406226 -0.030434500526610234 -0.044014997497266943 -0.041266872944308662 -0.040357676699901306 -0.037211547384121281 0.0012410228593372585 -0.013882640158747824 -0.033863433353849864 0.00098265784994925405 -0.023368462776267057 -0.0016171145493289892 -0.011290152818968576 0.029643751343032709 -0.037664015793026834 -0.040080103698250533 -0.01039853697810642
leaf_weight=11776 3876 3784 2039 646 133 623 178 59 237 387 660 91 730 79 80 156 117 122 86 16210 44 55 101 152 1079 30 331 73 28 538
leaf_count=11776 3876 3784 2039 646 133 623 178 59 237 387 660 91 730 79 80 156 117 122 86 16210 44 55 101 152 1079 30 331 73 28 538
internal_value=0 0.00211821 -0.00208761 -0.00344585 -0.00682215 -0.0102128 -1.08056e-05 -0.00173728 -0.0059649 -0.0129135 -0.00100957 -0.00860482 -0.00682788 0.00205205 -0.0127604 -0.0137356 -0.0119399 -0.0208682 0.00111784 0.000547367 0.00348582 0.000683193 -0.00372046 -0.0148838 -0.00122988 0.00397753 0.00384695 -0.00345265 0.00145124 0.00266686
internal_weight=0 33749 10751 8095 2720 1816 904 5375 1499 624 875 1683 1470 2656 258 215 847 213 21943 17683 4260 17597 1387 253 1134 11806 4216 432 359 2577
internal_count=44500 33749 10751 8095 2720 1816 904 5375 1499 624 875 1683 1470 2656 258 215 847 213 21943 17683 4260 17597 1387 253 1134 11806 4216 432 359 2577
is_linear=0
shrinkage=0.037


Tree=26
num_leaves=31
num_cat=0
split_feature=5 1 6 5 16 15 0 2 15 21 17 21 9 20 0 6 2 16 21 1 15 23 6 13 17 9 20 2 23 7
split_gain=98.5785 84.4672 49.9346 75.3311 37.7445 23.5352 42.8556 55.995 33.0827 25.2626 21.7111 20.5279 20.0227 19.8137 19.0388 26.0377 17.3244 25.0483 22.0358 33.5002 18.5943 20.732 17.1923 38.6959 17.5228 14.6682 21.6337 13.9447 14.7331 13.7224
threshold=0.17770851932508988 -0.22464474567078541 1.2821793903035943 0.99878029412606761 0.17724308342321002 15.449540590662343 1.2106370842920813 1.0349457343118618 15.569135671869317 0.72679112004743363 0.86295949616625234 0.99963126843657835 32.500000000000007 0.97285382279393218 -0.11511436863631341 -0.38908489769249893 0.58794414382065541 105.34791336294937 0.26200651200651209 1.790040404464178 13.337689231952123 12.957225936640048 -1.2493802917455517 6.6777112037396167 0.49627806310211381 24.500000000000004 0.50557523728554898 0.62509015702378401 15.981402798007176 0.12935149146064853
decision_type=10 10 10 10 10 10 2 10 10 10 8 10 2 10 2 8 10 10 8 10 10 2 10 2 8 2 10 10 2 10
left_child=4 -2 5 10 13 14 8 -8 9 -7 -4 -5 -9 -1 15 -3 -16 18 19 20 27 -22 23 -6 -24 -20 -27 -18 -29 -30
right_child=1 2 3 11 22 6 7 12 -10 -11 -12 -13 -14 -15 16 -17 17 -19 25 -21 21 -23 24 -25 -26 26 -28 28 29 -31
leaf_value=0.0045204101599863981 -0.0026238335425985866 -0.007607442499324258 0.0015948699724438581 0.0018665003550366582 0.0051487875233421328 -0.016764372014636254 -0.024084116434988825 0.001797430941599492 -0.00027162672192865012 -0.0080654521948866995 -0.037201036009248171 -0.0067755745161137467 -0.014300981953006714 -0.010872417164666739 0.001161804134838483 0.0058746081947015118 -0.04200132241013288 -0.015965148808996583 0.0008742010963642354 -0.029308424007125657 -0.089036511259054971 -0.0049350631342118092 0.0037503287191068681 -0.013368982472874153 -0.00025183853626085262 0.0019993834725385825 -0.014045583478088413 0.00059383895603310377 -0.02234220300533819 -0.00035156210869997803
leaf_weight=12341 158 60 62 428 4028 83 282 280 2541 107 436 25 45 30 3272 46 28 37 2408 151 79 385 5665 44 10229 224 276 650 32 68
leaf_count=12341 158 60 62 428 4028 83 282 280 2541 107 436 25 45 30 3272 46 28 37 2408 151 79 385 5665 44 10229 224 276 650 32 68
internal_value=0 -0.00166423 -0.0013105 -0.00944613 0.0022433 -0.000610577 -0.00320628 -0.0120989 -0.00122978 -0.0161223 -0.019378 0.0014724 -0.00163085 0.00384921 0.000512341 -0.0150604 0.000729255 -0.000803953 -0.00054318 -0.00436969 -0.00236901 -0.00823122 0.00124827 0.00339331 0.000698716 0.00128981 -0.004477 0.00112722 0.00208433 -0.011137
internal_weight=0 12163 12005 951 32337 11054 3338 607 2731 190 498 453 325 12371 7716 106 7610 4338 4301 1393 1242 464 19966 4072 15894 2908 500 778 750 100
internal_count=44500 12163 12005 951 32337 11054 3338 607 2731 190 498 453 325 12371 7716 106 7610 4338 4301 1393 1242 464 19966 4072 15894 2908 500 778 750 100
is_linear=0
shrinkage=0.037


Tree=27
num_leaves=31
num_cat=0
split_feature=1 12 6 5 16 0 15 2 17 2 15 5 1 4 5 16 10 23 0 16 0 17 15 2 21 3 21 1 17 17
split_gain=90.8739 58.3243 40.6211 39.8154 37.2067 29.6757 63.3142 87.6072 25.5076 24.9083 24.8249 30.528 24.8474 23.3381 23.7449 20.5878 24.3218 24.0419 20.7473 20.5445 19.9465 19.6536 19.4723 18 17.4502 16.4244 18.0702 30.5973 14.825 14.5859
threshold=1.0135523283372814 -1.445185878948082 1.3771185638459815 0.99878029412606761 0.10481968665451455 1.4656221266494369 13.879076234316784 -1.3015106362290574 0.87287142235099557 0.28214432226875924 17.205510095970297 0.72409852710325995 1.0467305241432381 1.2847636780892853 -1.2511070917719043 2.4526434378676139 2.8029010331479989 8.8706477055284214 0.59075039383056638 105.34791336294937 1.5995925957477264 1.7925449138274308 13.337689231952123 2.1229806720873881 0.99963126843657835 0.78363191438278623 0.041666666666666678 2.07565401218559 1.3734068179869028 0.31489337984756643
decision_type=10 10 10 10 8 2 10 10 10 10 10 10 10 8 10 10 2 2 2 10 2 8 8 10 10 8 8 10 10 10
left_child=4 10 15 8 -1 9 20 -8 -4 29 12 -12 23 14 -11 16 -3 18 -17 25 22 28 -7 -2 -5 -14 27 -27 -9 -6
right_child=1 2 3 24 5 6 7 21 -10 13 11 -13 19 -15 -16 17 -18 -19 -20 -21 -22 -23 -24 -25 -26 26 -28 -29 -30 -31
leaf_value=0.005591488953416165 0.034564144883634573 -0.027260870899573998 0.0015358597834634357 0.0017974398419003019 0.003744460952304476 0.0026530920966441021 -0.023193004126894241 -0.013771845620745468 -0.035824597676905989 -0.04125953771600762 0.00011205851923372533 -0.0388543924732936 -0.024312044541415858 0.00081077067224316602 -0.0040103313491646145 -0.0073259671268492621 0.0002054387316198114 0.0016119676532105058 0.03343553296336324 -0.015374438303063705 0.0014441538853939384 0.0017309259967603122 -0.042553697765787567 -0.007767030463675894 -0.0065248782590175379 0.0015489044993614921 0.001434512951920193 -0.028224012318862002 -0.037717329857996022 0.0018719761425426901
leaf_weight=3973 27 1210 57 183 11210 39 226 119 332 58 53 72 64 7696 2882 59 455 832 32 50 1125 230 58 54 25 108 2477 78 47 10669
leaf_count=3973 27 1210 57 183 11210 39 226 119 332 58 53 72 64 7696 2882 59 455 832 32 50 1125 230 58 54 25 108 2477 78 47 10669
internal_value=0 -0.00300708 -0.00648906 -0.015189 0.00183184 0.00143986 -0.00312622 -0.012736 -0.0221761 0.00169881 0.00071069 -0.015429 0.00141659 0.000230029 -0.00257414 -0.00448215 -0.00693922 -4.9828e-05 -0.018106 0.00200579 0.00176516 -0.00224579 -0.0143335 -0.0187837 -0.00212181 0.00243672 0.00288187 -0.00824066 -0.0119483 0.00241282
internal_weight=0 6168 3185 597 38332 34359 1844 622 389 32515 2983 125 2858 10636 2940 2588 1665 923 91 2777 1222 396 97 81 208 2727 2663 186 166 21879
internal_count=44500 6168 3185 597 38332 34359 1844 622 389 32515 2983 125 2858 10636 2940 2588 1665 923 91 2777 1222 396 97 81 208 2727 2663 186 166 21879
is_linear=0
shrinkage=0.037


Tree=28
num_leaves=31
num_cat=0
split_feature=5 1 6 5 16 0 15 21 0 17 2 19 16 15 17 9 21 0 6 16 16 16 22 9 16 8 19 7 9 1
split_gain=83.7029 85.5798 52.1531 75.3311 28.5602 22.5319 22.2496 36.6651 35.2449 30.9954 28.2985 28.7699 29.0662 22.0278 21.7111 20.8312 20.5279 19.4396 26.0377 17.4894 16.4734 15.5059 15.2645 15.1687 20.437 30.9061 13.59 13.4897 13.0162 16.4852
threshold=0.17770851932508988 -0.22464474567078541 1.2821793903035943 0.99878029412606761 0.48852774524627857 -2.5927609362013455 15.449540590662343 0.98806147092044949 1.4144730091219915 1.0798831557306114 2.1229806720873881 0.59010664571276328 0.28766378709425494 16.150536614223512 0.86295949616625234 24.500000000000004 0.99963126843657835 -0.11511436863631341 -0.38908489769249893 0.057186588411138599 105.34791336294937 3.2755507057655984 0.77491931784975832 9.5000000000000018 0.56211393367817553 0.59920327482981195 0.16600156663826762 0.19653761934128494 24.500000000000004 0.81587149520416846
decision_type=10 10 10 10 10 2 10 8 2 10 10 10 8 10 8 2 10 2 8 8 10 8 10 2 10 8 10 10 2 10
left_child=4 -2 6 14 19 -6 17 9 10 23 11 -9 -13 -10 -4 22 -5 18 -3 -1 21 28 -11 -8 -25 27 -16 -26 -19 -30
right_child=1 2 3 16 5 -7 7 8 13 15 -12 12 -14 -15 26 -17 -18 20 -20 -21 -22 -23 -24 24 25 -27 -28 -29 29 -31
leaf_value=0.0060328939781304431 -0.001668610548827356 -0.0070549063431558376 0.0014790329714752888 0.0017309345677499913 0.0066262811442259813 0.00014886616337655105 0.001966265080761238 0.00078957610762536094 0.033114700176468288 0.0002183418299237092 -0.0074796503365198866 -0.021130042231168458 -0.006623224626758897 -0.01508745985751099 -0.024211841652106564 -0.028204151370221479 -0.0062834577634338909 0.00054186839978688191 0.0059330486463870392 0.0029085658392338943 -0.014805584085850351 0.0010745365691315464 -0.025820200260726452 0.00059484708227588805 0.00019197960393467056 -0.021545321022057671 -0.034499087562860471 -0.024026830869262682 -1.1596852862406007e-05 -0.018844499081642322
leaf_weight=2502 158 60 62 428 1127 10528 863 272 35 245 54 77 151 142 49 196 25 3910 46 18180 54 2446 39 892 243 87 387 42 729 471
leaf_count=2502 158 60 62 428 1127 10528 863 272 35 245 54 77 151 142 49 196 25 3910 46 18180 54 2446 39 892 243 87 387 42 729 471
internal_value=0 -0.0014878 -0.00113174 -0.00944613 0.00211286 0.000648079 -0.000416439 -0.00294025 -0.0102634 -0.000886851 -0.00567115 -0.002923 -0.012617 -0.0246368 -0.019378 -0.0093795 0.0014724 0.000675379 -0.0150604 0.00293831 0.000894563 0.00104009 -0.00297616 0.00102969 -0.00155213 -0.00883743 -0.0222913 -0.00294507 -0.000119544 -0.00349033
internal_weight=0 12163 12005 951 32337 11655 11054 3338 731 2607 554 500 228 177 498 480 453 7716 106 20682 7610 7556 284 2127 1264 372 436 285 5110 1200
internal_count=44500 12163 12005 951 32337 11655 11054 3338 731 2607 554 500 228 177 498 480 453 7716 106 20682 7610 7556 284 2127 1264 372 436 285 5110 1200
is_linear=0
shrinkage=0.037


Tree=29
num_leaves=31
num_cat=0
split_feature=5 1 6 5 15 0 10 16 2 0 19 17 0 2 15 21 13 1 3 23 15 18 16 16 16 15 19 19 19 20
split_gain=80.3744 72.371 55.2022 79.9212 31.82 30.238 56.2657 28.6245 26.9162 25.0372 24.4237 24.1907 23.9406 39.0659 21.201 20.2845 19.9604 20.6924 41.8527 19.0415 18.9185 17.7878 17.219 17.2193 16.6675 18.3461 16.2854 36.8204 18.9184 21.7376
threshold=0.080460336426718168 -0.3245638132928152 1.3771185638459815 0.99878029412606761 15.201086634225645 1.3849034599912289 0.89587973461402759 0.47515520412661483 -0.25466327601109612 -0.058326602973285395 0.77248815485776656 0.86295949616625234 -0.011265807112879762 0.1211591390132294 16.350285805729996 0.99963126843657835 3.0677824455408698 0.9728357031133964 2.6270373621699883 8.8706477055284214 16.587251209085945 0.9207048587684038 0.37081513322690834 105.34791336294937 1.4667132384586636 15.680320758752876 0.70176555939367047 0.65027543269898347 0.65421272558384769 0.75540893737311687
decision_type=10 10 10 10 10 2 2 10 10 2 10 8 2 10 10 10 2 10 8 2 10 2 8 10 10 10 8 10 10 8
left_child=7 8 4 11 16 21 24 -1 -2 10 -9 -4 13 -11 -12 -5 17 -3 19 -19 -16 26 -20 -24 25 -7 27 -6 -29 -30
right_child=1 2 3 15 5 6 -8 9 -10 12 14 -13 -14 -15 20 -17 -18 18 22 -21 -22 -23 23 -25 -26 -27 -28 28 29 -31
leaf_value=0.0039304870713656225 -0.0016068719585207469 0.00077526410932523616 0.0014243087515307033 0.0014447729167903066 -0.00068026349438281395 -0.034317099707358766 0.0015941299268920155 0.0047035843435331397 0.0013852121435894303 -0.0069248907478912745 -8.0980194229080587e-05 -0.033222621323034628 -0.0020620675740605637 -0.036496458909966424 -0.039738442868560264 -0.0060509698261868375 0.004337284343262836 -0.006793874808459075 -0.0074002854334785702 -0.028327532310680255 -0.016149352239288522 -0.024467528151273829 0.00024226525279474331 -0.01425777747467389 -0.015871858776654927 -0.019170826340244293 0.0010182815598279826 -0.020348230668615228 -0.011739357333612652 0.0034663771558106492
leaf_weight=17108 146 3878 57 404 3065 49 315 6721 33 195 372 350 2564 144 97 25 3365 60 23 824 96 45 1719 54 62 207 1906 87 397 132
leaf_count=17108 146 3878 57 404 3065 49 315 6721 33 195 372 350 2564 144 97 25 3365 60 23 824 96 45 1719 54 62 207 1906 87 397 132
internal_value=0 -0.000891981 -0.000645901 -0.00991724 -0.000167099 -0.00223161 -0.00989899 0.00233712 -0.0242958 0.00078456 0.00194229 -0.0216625 -0.00212113 -0.0113618 -0.0054462 0.00122566 0.00113635 -5.23464e-05 -0.00255245 -0.00914302 -0.0153968 -0.00136984 0.000691463 0.00110409 -0.020878 -0.0250467 -0.00118323 -0.00262067 -0.0108751 -0.00824554
internal_weight=0 17203 17024 836 16188 6265 633 27297 179 10189 7286 407 2903 339 565 429 9923 6558 2680 884 193 5632 1796 1773 318 256 5587 3681 616 529
internal_count=44500 17203 17024 836 16188 6265 633 27297 179 10189 7286 407 2903 339 565 429 9923 6558 2680 884 193 5632 1796 1773 318 256 5587 3681 616 529
is_linear=0
shrinkage=0.037


Tree=30
num_leaves=31
num_cat=0
split_feature=5 1 6 5 16 2 15 0 16 17 12 21 16 21 2 12 0 15 5 12 20 20 6 4 4 7 6 4 23 13
split_gain=82.2523 72.0388 54.557 79.9212 27.6527 26.9162 26.5055 34.0728 60.2971 24.1907 21.7009 34.7782 25.4593 20.2845 19.5496 19.4154 18.0792 17.4436 38.1984 17.0875 21.2798 15.8327 15.5726 15.0713 14.9726 15.2468 20.6549 14.8744 14.5373 15.1587
threshold=0.080460336426718168 -0.3245638132928152 1.3771185638459815 0.99878029412606761 0.13837541091635086 -0.25466327601109612 15.449540590662343 1.3849034599912289 1.4040410865802648 0.86295949616625234 2.1690083468387198 0.9572112816481525 105.34791336294937 0.99963126843657835 0.52761999249390634 1.0111415639199439 -0.10431081302707408 15.569135671869317 0.29387664612630104 1.980935405577857 0.71336828546374498 0.97285382279393218 0.56684819992845437 1.2592228594880406 0.85476004508696335 0.164231198815291 0.44012007887146581 1.3933104669944769 16.298295390890619 2.1383330595080281
decision_type=10 10 10 10 8 10 10 2 10 8 8 10 10 10 10 10 2 10 10 10 10 10 10 8 8 10 10 8 2 2
left_child=4 5 6 9 21 -2 10 17 15 -4 11 19 -12 -5 -6 -9 -13 18 -8 -3 -21 -1 -10 -20 25 -19 -27 28 -16 -30
right_child=1 2 3 13 14 -7 7 8 22 -11 12 16 -14 -15 27 -17 -18 24 23 20 -22 -23 -24 -25 -26 26 -28 -29 29 -31
leaf_value=0.0049233089551549026 -0.0015474176960554803 6.3204146899056843e-05 0.001371609327724067 0.0013913163188690636 0.003179997118413365 0.0013339592942766209 0.0070680210904566464 -0.01652557547064357 0.0015351471195970111 -0.031993384334082345 0.00089911121448248154 -0.06409134607285287 -0.013730239708110954 -0.0058270839426179258 -0.0078701264250881052 -0.020807126951536543 -0.025563936024622393 -0.004122522388424683 -0.010307225471211153 -0.0047773436946189178 -2.3211152096331622e-05 -0.010930067778542649 -0.04732522242234085 -0.0071777335247764848 0.00014719994087545213 -0.0076186271669080917 -0.014286455514509277 0.00041703077985137633 -0.040219944698052498 -0.0037839568731743299
leaf_weight=4344 146 4512 57 404 20085 33 128 222 216 350 5676 72 43 25 553 53 116 776 38 128 63 24 73 103 3814 77 78 2096 83 112
leaf_count=4344 146 4512 57 404 20085 33 128 222 216 350 5676 72 43 25 553 53 116 776 38 128 63 24 73 103 3814 77 78 2096 83 112
internal_value=0 -0.000945751 -0.000700236 -0.00991724 0.00232085 -0.0242958 -0.00022424 -0.00228911 -0.0109113 -0.0216625 0.000861322 -0.000948119 0.00240879 0.00122566 0.00180685 -0.0233134 -0.0165532 -0.00131923 -0.010485 -0.000324315 -0.0111641 0.00501899 0.00088992 -0.0237695 -0.000799614 -0.00500637 -0.0156009 -0.00106426 -0.00554347 -0.0142298
internal_weight=0 17203 17024 836 27297 179 16188 5578 564 407 10610 4891 5719 429 22929 275 188 5014 269 4703 191 4368 289 141 4745 931 155 2844 748 195
internal_count=44500 17203 17024 836 27297 179 16188 5578 564 407 10610 4891 5719 429 22929 275 188 5014 269 4703 191 4368 289 141 4745 931 155 2844 748 195
is_linear=0
shrinkage=0.037


Tree=31
num_leaves=31
num_cat=0
split_feature=5 1 6 5 16 2 0 15 0 16 17 6 0 2 19 19 17 16 21 12 21 9 15 5 0 20 3 20 6 4
split_gain=81.9704 71.9062 54.3 79.9212 28.3647 26.9162 25.0703 24.9214 34.3881 60.2971 24.1907 23.8216 23.7429 39.0659 21.399 28.28 20.7634 25.155 20.2845 19.4154 18.6749 30.5964 17.6126 38.1984 16.546 19.161 33.9955 15.9265 15.5726 15.0713
threshold=0.080460336426718168 -0.3245638132928152 1.3771185638459815 0.99878029412606761 0.47515520412661483 -0.25466327601109612 -0.058326602973285395 15.449540590662343 1.3849034599912289 1.4040410865802648 0.86295949616625234 -1.2493802917455517 -0.011265807112879762 0.1211591390132294 0.77248815485776656 0.77853323786705109 0.52060201219309732 105.34791336294937 0.99963126843657835 1.0111415639199439 0.993667033003932 7.5000000000000009 15.569135671869317 0.29387664612630104 0.097035631983986001 0.69803844066755194 -2.154257688876029 0.36997191555376735 0.56684819992845437 1.2592228594880406
decision_type=10 10 10 10 10 10 2 10 2 10 8 10 2 10 10 10 10 10 10 10 10 2 10 10 2 8 10 10 10 8
left_child=4 5 7 10 -1 -2 11 16 22 19 -4 -6 13 -8 -13 -16 17 -3 -5 -10 -18 -22 23 -9 -14 26 -26 -28 -11 -25
right_child=1 2 3 18 6 -7 12 8 9 28 -12 14 24 -15 15 -17 20 -19 -20 -21 21 -23 -24 29 25 -27 27 -29 -30 -31
leaf_value=0.0036598532179022967 -0.0014901632413014273 0.00086584409954662913 0.0013208597825982767 0.00133983761507091 0.0060894162277976005 0.0012846028003883868 -0.0067863296836005926 0.0068065043101097509 -0.01591412917822976 0.0014783466761719216 -0.030809629113721301 0.0010199557792035972 0.0051884631899551219 -0.035161520069152165 -0.039206135126338769 -0.0034423878592878144 -1.626259274154218e-05 -0.01322222083891085 -0.0056114818367410599 -0.020037263254329692 -0.061719966268157324 -0.014043913975438294 -0.00043728923366976317 -0.009925858128776343 -0.045843122856675918 0.0058125751504305694 -0.027047387056661855 -0.0044774055342924751 -0.045574189192714241 -0.0069121573843597553
leaf_weight=17108 146 5945 57 404 2456 33 195 128 222 216 350 4364 908 144 74 392 4344 43 25 53 72 206 4745 38 138 529 328 661 73 103
leaf_count=17108 146 5945 57 404 2456 33 195 128 222 216 350 4364 908 144 74 392 4344 43 25 53 72 206 4745 38 138 529 328 661 73 103
internal_value=0 -0.000967259 -0.00072197 -0.00991724 0.00229374 -0.0242958 0.000748247 -0.000247097 -0.00224931 -0.0109113 -0.0216625 0.00190674 -0.00215937 -0.0113618 0.000398114 -0.00713846 0.000805526 0.00224355 0.00122566 -0.0233134 -0.0010575 -0.0103544 -0.00127496 -0.010485 -0.000942663 -0.00314357 -0.00587033 -0.00346988 0.00088992 -0.0237695
internal_weight=0 17203 17024 836 27297 179 10189 16188 5578 564 407 7286 2903 339 4830 466 10610 5988 429 275 4622 278 5014 269 2564 1656 1127 989 289 141
internal_count=44500 17203 17024 836 27297 179 10189 16188 5578 564 407 7286 2903 339 4830 466 10610 5988 429 275 4622 278 5014 269 2564 1656 1127 989 289 141
is_linear=0
shrinkage=0.037


Tree=32
num_leaves=31
num_cat=0
split_feature=1 12 6 5 16 19 17 0 15 2 15 5 1 21 2 4 5 16 21 1 16 23 0 3 10 21 0 1 21 0
split_gain=81.3952 52.9209 43.1545 39.8154 34.5758 25.8565 25.5076 24.6127 69.2001 80.3496 24.5965 30.528 25.1932 28.9673 23.0436 21.2411 23.8995 20.9646 20.1209 27.8987 19.7756 24.6866 20.7473 19.5835 18.8284 17.4502 16.679 20.8929 16.6691 15.4877
threshold=1.0135523283372814 -1.445185878948082 1.3771185638459815 0.99878029412606761 0.10481968665451455 0.91060185458149423 0.87287142235099557 1.5353593277969042 13.879076234316784 -1.3015106362290574 17.205510095970297 0.72409852710325995 1.2314330525056956 0.61112321266197933 0.25789348964223913 1.1844118478906482 -1.2511070917719043 105.34791336294937 0.041666666666666678 2.07565401218559 2.4526434378676139 8.8706477055284214 0.59075039383056638 0.78363191438278623 1.0000000180025095e-35 0.99963126843657835 1.5995925957477264 -0.3245638132928152 0.097582062322559407 -0.7385774452069539
decision_type=10 10 10 10 8 10 10 2 10 10 10 10 10 10 10 8 10 10 8 10 10 2 2 8 2 10 2 10 10 2
left_child=4 10 20 6 5 -1 -4 14 26 -10 12 -12 13 -2 29 16 -16 18 19 -14 24 22 -22 -20 28 -5 27 -9 -3 -6
right_child=1 2 3 25 7 -7 -8 8 9 -11 11 -13 17 -15 15 -17 -18 -19 23 -21 21 -23 -24 -25 -26 -27 -28 -29 -30 -31
leaf_value=0.0049025698743282052 -1.1529067824886052e-05 -0.037755508126664242 0.0012719879706421405 0.0015123806952662205 0.0057341434425615609 -0.010661069839798957 -0.029669672836513616 -0.041485330368589278 -0.019867037312873901 -0.012479669862638165 0.00032602855133189568 -0.037135817587466112 0.0068342937973412459 -0.0066564075611384435 -0.035329355528921053 0.00074484249977637698 -0.0036816888326974108 -0.012732998667871151 -0.022386166166184242 -0.027274040154828705 -0.0018874828839287095 0.00079015153318482496 0.033875524208576167 0.0012871196809345511 -0.012917734744331517 -0.0054038570087816436 0.0012370724967740183 0.0024211817173462897 -0.027313788400303577 0.0016582071146907442
leaf_weight=3923 111 247 57 183 3304 50 332 45 221 325 53 72 91 68 58 8025 2964 50 61 78 59 832 32 2399 1105 25 1125 39 313 18253
leaf_count=3923 111 247 57 183 3304 50 332 45 221 325 53 72 91 68 58 8025 2964 50 61 78 59 832 32 2399 1105 25 1125 39 313 18253
internal_value=0 -0.0029051 -0.00622187 -0.015189 0.00167451 0.0049424 -0.0221761 0.00129663 -0.0029717 -0.0139045 0.000636268 -0.015429 0.00133891 -0.0121002 0.00152639 0.000152304 -0.00249159 0.00223686 0.00268825 -0.00966138 -0.00415332 0.000190692 -0.018106 0.00353666 -0.00656144 -0.00212181 0.00196571 -0.0139384 -0.0120884 0.00223054
internal_weight=0 6168 3185 597 38332 3973 389 34359 1755 546 2983 125 2858 179 32604 11047 3022 2679 2629 169 2588 923 91 2460 1665 208 1209 84 560 21557
internal_count=44500 6168 3185 597 38332 3973 389 34359 1755 546 2983 125 2858 179 32604 11047 3022 2679 2629 169 2588 923 91 2460 1665 208 1209 84 560 21557
is_linear=0
shrinkage=0.037


Tree=33
num_leaves=31
num_cat=0
split_feature=5 1 6 5 16 2 15 0 16 9 12 21 16 1 19 21 2 18 0 10 22 18 1 20 18 20 3 15 5 9
split_gain=76.3442 72.6773 47.1547 69.4927 27.1316 26.9162 25.0065 27.2033 57.7815 22.1579 22.1353 35.1456 25.85 21.4892 21.1851 20.2845 19.7486 18.1019 18.0792 15.3399 15.7599 15.3222 20.6853 35.9963 21.7323 14.8726 18.9995 31.0818 28.2822 17.6677
threshold=0.080460336426718168 -0.3245638132928152 1.3771185638459815 0.99878029412606761 0.10481968665451455 -0.25466327601109612 15.201086634225645 1.3849034599912289 0.75178044463321847 27.500000000000004 2.1690083468387198 0.9572112816481525 105.34791336294937 2.8455593540193393 0.91060185458149423 0.99963126843657835 0.52761999249390634 0.9207048587684038 -0.10431081302707408 3.9219243190762363 0.25613136863136871 0.02836391677147521 -0.94641683437457846 0.76395602762143677 0.24763306840634983 0.74823487550528134 -0.99327085697656936 15.617607304956815 0.13440995470204101 9.5000000000000018
decision_type=10 10 10 10 8 10 10 2 10 2 8 10 10 10 10 10 10 2 2 2 10 2 10 8 2 8 10 10 10 2
left_child=4 5 6 13 14 -2 10 17 -9 -10 11 -3 -12 19 -1 -5 -6 25 -13 20 -4 -18 23 -23 -24 26 27 -8 -29 -28
right_child=1 2 3 15 16 -7 7 8 9 -11 12 18 -14 -15 -16 -17 21 -19 -20 -21 -22 22 24 -25 -26 -27 29 28 -30 -31
